2000 64
55-2 0.25273228 0.33755842 0.2678796 0.080646396 0.0073507447 -0.73281515 0.06452733 0.028841024 -0.34431556 0.0053206203 0.11363563 -0.23085381 -0.030792283 0.25756174 -0.28449035 -0.10005023 -0.51936835 0.8875414 -0.22048202 0.43316627 0.4577381 -0.040977195 -0.24906416 -0.8588549 -0.21884847 0.25692126 -0.45201427 -0.05504665 -0.12092556 0.2885301 -0.120655075 0.11874522 -0.23750414 0.27355754 0.2144396 0.3386113 -0.68781036 0.077629745 -0.12441571 -0.21618898 0.050303522 0.50860685 -0.11050865 0.2221349 0.9045587 -0.21632501 0.57969546 -0.05850405 0.20567764 0.06060688 0.7018657 -0.15456577 0.8295153 0.21716952 0.8097236 0.7135288 -0.13698141 -0.9064955 -0.37032753 0.56540686 -0.52679425 -0.47356296 -0.78936833 -0.39210814
65-12 0.52612346 0.20938374 0.08239406 0.03606073 0.4201651 0.15735437 -0.17028445 0.09536454 -0.31960827 -0.38306424 0.31294882 -0.67545426 0.38889286 -0.32778367 0.27736193 0.34123686 -0.54023135 0.32317963 -0.21486647 0.45274112 0.09368609 0.63231695 0.015157149 -0.69935805 -0.10212157 0.3238772 0.2142345 0.39373428 0.41373914 0.42713943 0.40223956 0.42002636 0.9869654 -0.00049134676 -0.19496433 0.09481259 -0.19263095 -0.7397244 -0.34244347 0.21316768 1.1078299 -0.08613764 -0.6521858 0.5484463 0.17510399 -0.65127295 0.07469279 0.006354057 -0.23187146 -0.5988271 0.13462135 0.32495362 0.45284152 -0.5137646 -0.07637284 -0.16031462 -0.057457756 -0.92279375 0.22563565 0.19887905 -0.6674672 0.31338826 0.21209519 -0.47019747
9-10 0.080662645 0.18267223 0.3746209 0.07047205 0.039785847 -0.7347319 -0.41732776 -0.06763306 -0.13561283 0.3714251 0.18524376 -0.19869842 -0.18150684 0.1101752 -0.19427407 -0.21622221 -0.6012616 0.75317484 -0.2414586 0.5552816 0.37850714 0.026030483 -0.6295413 -0.644927 -0.44748396 0.43089357 -0.4268023 0.0015843923 0.2788625 0.22768964 -0.21797487 -0.077607654 -0.31848538 0.029556034 0.17227669 0.21816254 -0.45608523 0.2840505 0.142106 0.10803853 0.23662594 0.39047793 -0.09456941 0.28422707 0.9780912 0.012398515 0.50930417 0.030188633 0.20447531 -0.019215085 0.43798113 -0.1502855 0.8196341 0.10687267 0.75065416 0.58154625 -0.27573156 -1.0119588 -0.29032445 0.42891586 -0.700081 -0.4332823 -0.8419555 -0.18384415
46-4 0.5335394 0.46145463 0.5219916 -0.11843087 0.72638017 -0.044412196 -0.39302188 -0.46931764 -0.14666764 -0.0024032146 0.30367818 -0.28965473 0.050597735 0.017937962 -0.39022475 0.17171878 -0.5432657 1.0180892 0.33754748 0.032835275 0.3097645 0.3647425 -0.64928746 -1.0321324 -0.11604488 0.14855061 -0.42466855 0.1428899 -0.1127495 0.2374062 0.39433905 -0.42896563 0.113097586 -0.07884084 -0.33975026 -0.29787618 -0.011000444 0.026441444 0.10761245 0.19946495 -0.081119105 0.526195 -0.3007477 -0.18039013 0.18363564 -0.25989443 -0.23057505 -0.051916976 -0.1896071 -0.04838797 -0.22723137 1.0076064 0.23204358 -0.19166851 -0.42387474 0.3189569 0.10180375 0.0021195451 -0.40989286 1.1273123 0.13373514 -0.11312943 -0.45461103 -0.8189859
25-11 0.44605583 0.5618859 0.41707334 -0.42764276 0.13086271 -1.2400213 -0.3591485 -0.25740442 -0.4714155 0.45360425 0.29480192 0.3695605 -0.12718199 0.22934017 -0.44405267 -0.23014064 -0.71975404 0.5822848 -0.3275532 0.9426278 0.7874987 0.21490666 -0.08840394 -0.57707787 -0.055874806 -0.2825706 -0.25627953 -0.20630246 -0.0051457523 0.21315555 0.10701504 0.12902665 -0.20453387 -0.21261828 -0.5162146 0.4091646 -0.1456734 -0.48231968 -0.4179756 0.81221175 -0.1598759 -0.4937519 -0.17859992 0.06267582 0.61045444 -0.015587534 -0.26552126 0.32274392 0.30763066 -0.48676696 -0.35250944 0.11008665 0.43400332 0.44281888 0.106161445 -0.2915319 0.54016304 -0.15796016 -0.17743875 0.959644 -0.0797499 0.14336008 -0.2196964 0.34441048
37-1 0.30099735 -0.3831386 1.1121716 -0.52395797 0.004854015 0.09228074 0.54993284 -0.4296276 0.08346714 0.083534814 0.3435202 -0.012168401 -0.3158933 -0.48953244 0.58487767 -0.13520129 -0.84639835 0.052461572 -0.437437 0.50277907 0.3582509 0.60000867 -0.034809418 -0.3106492 -0.051086366 -0.6059622 -0.6430748 0.08828865 0.034061536 -0.64108384 -0.040020276 0.48502406 0.22388297 -0.04123278 -0.5526296 0.37575376 0.1330505 0.09713238 -0.10467262 0.7828094 -0.53340584 0.33744317 -0.41155168 0.22906373 0.37606758 -0.09914058 -0.004683964 0.14255016 0.0037626505 0.13006537 0.014885825 0.44738185 -0.02872282 0.45369643 -0.12608494 -0.13527526 0.088885084 -0.9281634 -0.24043919 1.0423255 -0.8005058 0.43814525 0.16955657 -0.32130218
23-15 0.3364261 0.13947527 0.20164703 0.03110979 0.5730569 -0.36903542 0.88340586 0.20607033 -0.117287934 -0.16411868 0.30487335 0.063914694 0.4201989 -0.70350933 -0.2410823 0.14688288 -0.8130447 0.58592343 0.25155333 0.32751802 0.3973749 0.4029681 0.14454809 -0.94286186 -0.5354671 -0.40537587 -0.30271518 -0.27805364 -0.0040756445 0.6955883 0.22573866 0.08409098 0.25784296 0.17832024 -0.29994017 -0.6759979 -0.149053 -0.08181417 0.45145696 -0.49708593 -0.1988055 -0.27120963 -1.0204434 0.13632005 1.0084897 0.46590155 0.021036424 -0.12366281 -0.39005607 -0.30846015 -0.2716512 -0.05493972 -0.29787183 0.23934199 -0.1413599 -0.32409415 0.26749358 -0.62118715 -0.63925177 0.56093186 -0.17579748 -0.1385216 0.09272047 0.4958398
42-17 0.23774132 -0.22414058 0.38647908 -0.041987333 0.6397952 -0.20198426 0.4595661 0.10278706 -0.1943745 -0.10156535 0.30168498 -0.19441676 0.13215883 -0.594325 -0.13818514 0.12588535 -0.9633588 0.26339945 0.42377064 0.3811479 0.28739965 0.5659432 0.4562331 -0.586104 -0.59902316 -0.60952926 -0.7219125 -0.08049855 -0.083236985 0.7723331 0.17967902 0.009031084 0.48901835 -0.10490457 -0.1364344 -0.7479657 -0.35749626 -0.34331086 0.26829967 -0.09230206 -0.3210845 -0.07918813 -0.639894 0.378388 1.2761142 0.5261699 -0.041465122 -0.2906496 -0.28115505 0.15803277 -0.29736406 0.10424595 -0.066360466 0.2776225 -0.077050395 -0.1215317 0.38390765 -0.64524937 -0.41745552 0.36920527 -0.47027603 -0.2510801 0.23291497 0.35940075
38-10 0.39112806 -0.16303532 0.66966975 -0.24830617 0.46634063 -0.579136 0.0836736 0.49627382 -0.8642688 -0.38173163 0.7264286 -0.715726 0.067353904 -0.025627267 -0.00899807 -0.668364 -0.6098606 0.44702086 -0.24410552 0.11764512 0.39765495 0.46271762 -0.40200436 -0.8400012 -0.469454 0.59796345 -0.005152599 0.08591014 -0.3630788 0.31087247 -0.46834707 0.063822515 -0.30924058 -0.44146982 -0.61091524 0.17880104 -0.35088807 0.2626669 -0.1955053 -0.19930361 -0.023255741 -0.18290204 -0.4960699 -0.07509678 0.2717612 -0.19862053 -0.15235649 -0.4616247 -0.5281189 -0.197667 0.12979174 0.13384178 -0.30805585 -0.28418645 -0.0073377225 -0.45913088 -0.083948195 -0.42110848 0.2540821 1.086824 -0.03681622 0.60458875 -0.34668437 0.5097366
14-13 0.15795234 0.37421235 0.5521414 0.4269211 0.008522356 -0.7874924 -0.1459815 -0.09335176 -0.10860771 0.17562796 0.27142334 -0.24225734 -0.36028048 0.3082878 -0.28747272 0.029929345 -0.7115603 0.9429015 -0.45724997 0.33383843 0.27789733 0.14931346 -0.22553222 -0.86908895 -0.2570249 0.23234203 -0.41142845 -0.029754126 -0.037201636 0.37589717 -0.17212617 0.03590525 -0.27055946 0.13828045 0.09148431 0.21795288 -0.2805905 -0.038004212 -0.32611865 -0.28262392 -0.090726785 0.5492071 -0.015237309 -0.0602943 0.7251724 -0.1624218 0.3579063 -0.10167563 0.29950988 -0.031000542 0.6369434 -0.3452451 0.9191121 0.10355877 0.7996233 0.39124605 0.17178254 -0.99730086 -0.4127929 0.44805804 -0.6836142 -0.68713844 -0.8527881 -0.44021708
44-11 0.7377542 0.16472852 -0.14793752 -0.7626808 0.18706994 -0.66414905 -0.79133147 0.11300399 -0.1120955 -0.19845845 0.37047994 0.04210887 -1.0594366 -0.008272799 -0.1460317 0.56700474 0.012092015 0.49578798 0.07250013 0.25863966 -0.018335478 0.19149324 -0.2963015 -0.9837829 0.1373 0.04486207 -0.08308138 -0.34686506 -0.8612291 0.1305928 0.45084262 0.35417628 -0.08057248 0.08486066 0.035812058 0.118623115 -0.1629019 -0.17491916 0.23487084 -0.23411609 0.72326046 0.13223007 0.0068490566 -0.17626497 0.38651884 0.043978408 -0.365667 -0.4436432 -0.86455387 0.40204212 0.021128515 -0.15018752 0.23917417 -0.10731741 -0.16677113 -0.15977265 0.21602802 -0.78651476 -0.3947362 0.754315 -1.0841179 0.12042554 0.1033812 -0.19832072
66-5 0.76796776 0.77179205 0.70167774 0.36236376 0.83690906 0.13671052 -0.040710445 -0.33825618 -0.07640865 -0.23393476 0.42582276 0.3423901 -0.10934854 -0.59564775 0.048800062 -0.37111086 -0.46069005 0.3375757 0.16855426 0.18806867 0.15989907 -0.10982409 -0.34166887 -0.48524016 -0.15997559 0.01969124 -0.16429764 0.043606125 -0.059097596 0.5944989 0.057339042 -0.123796314 -0.27438203 0.16398875 -0.595792 0.62510234 -0.06868735 -0.44607425 -0.18711536 0.32540166 0.49157548 -0.070784576 -0.5528204 0.10520115 0.21576291 -0.11415969 -0.8427953 -0.44094452 0.09908494 -0.4276918 0.6739164 -0.11912588 -0.6561919 -0.022810102 -0.1137749 0.48435938 0.34719697 -1.0777651 -0.005974119 -0.02559924 -0.4369812 0.52340806 0.23923275 -0.46370712
10-7 0.49616277 -0.50008565 0.11668845 -0.33814767 0.828631 0.13775368 -0.14852785 -0.13867255 -0.026240824 -0.66357195 0.16305637 0.09067086 0.15150273 -0.04985736 -0.13354187 0.40766764 -0.46409872 0.16469908 -0.21885918 1.103806 0.58806366 0.46341264 -0.46113044 -0.7619791 -0.40102553 0.31586584 -0.3169528 0.35350478 0.21724436 -0.15669341 0.4077169 -0.48121172 -0.6717746 -0.028580595 0.05514946 0.20273125 -0.46402904 -0.5208203 0.55304086 0.29695645 0.20875514 0.014520633 0.42335293 -0.052865136 0.8211655 -0.022899695 0.2713274 -0.47666642 0.17242129 -0.55429935 0.13020274 0.24920242 0.2500842 0.04165686 -0.29976425 -0.37430128 -0.3603954 -0.86857855 0.1636671 -0.19610775 -0.4537928 0.5741018 -0.25226328 -0.3934935
20-13 0.14263289 0.1963963 0.20800613 -0.17028898 0.16032675 -0.06217489 -0.26350623 -0.8371271 -0.11231135 -0.5162795 0.53066146 -0.5788685 0.39416915 0.23089278 0.10796531 0.020177541 -0.08793193 1.1419756 -0.059335347 1.4314646 0.44122878 0.38616455 -0.3103636 -0.6421946 -0.93855476 -0.088932164 -0.9188856 0.50997376 0.20292164 -0.014714901 0.3270697 -0.15649301 -0.15264541 0.46663174 0.15843908 0.26305968 -0.14248265 -0.31027243 0.018604435 -0.40140113 0.593606 0.54802066 -0.14289795 -0.018802889 0.33094144 0.4151712 -0.60036594 0.63639647 -0.5688312 -0.0025248087 0.30379146 0.00027960775 0.14238968 -0.15599011 -0.35182887 -0.08402377 0.06573376 -0.16371651 -0.56413084 0.1698319 -0.18053581 0.19883028 0.43391764 -0.12005736
45-8 -0.00012599726 -0.3534221 0.36923438 -0.34635594 0.5206261 -0.08271575 -0.45393658 -0.5079336 -0.29267493 -0.67866313 0.43943667 0.08236165 -0.39915395 -0.081916 -0.026789583 0.07699207 -1.0048823 0.7542431 -0.16629669 0.3239282 0.5737138 -0.10140846 0.027599707 -0.86319846 -0.15297703 0.55107623 -1.2418073 0.11318203 0.65900975 -0.17672989 0.6201564 0.43366316 0.39260638 0.15711497 0.15498793 0.9317033 0.028917056 0.90138745 -0.04612647 0.5392432 0.2785587 0.23428552 -0.18671773 -0.1511905 0.88752997 0.15223558 0.11972051 0.022487016 -0.35538858 -0.5386209 -0.33515707 0.008517621 -0.21333613 0.12028566 -0.17754373 -0.1438429 -0.00019625685 -0.30452886 -0.11805745 -0.2021808 -0.30170757 0.074584134 -0.033067856 0.040582377
28-6 0.3258582 0.5392103 0.86140054 0.08024692 0.6526003 0.031280916 -0.06446764 -0.44112736 0.081783235 -0.33972296 0.326806 0.49529606 -0.16281214 -0.44657218 -0.07971503 -0.5747407 -0.48774955 0.47691187 0.361175 0.19177245 0.40571314 -0.35375074 -0.44345534 -0.5102955 -0.23437625 0.28473634 -0.32018676 -0.06419646 -0.03448216 0.54573846 0.14997871 -0.3006839 0.2910153 0.52749914 -0.5781561 0.85866976 -0.44924116 -0.33603293 -0.035194304 0.16913395 -0.05705322 0.22842064 -0.58143973 0.23406783 0.28130502 -0.09233844 -0.9203683 -0.4905 0.030096166 -0.40827724 0.5485484 -0.15299428 -0.6668877 -0.19698744 -0.026013998 0.5719843 0.21583876 -0.99408555 -0.40135875 0.17407234 -0.11346352 0.33216432 0.08965871 -0.5958431
75-18 0.09431198 0.3837626 0.39715052 0.3076673 0.064358704 -0.70357054 -0.31928626 0.03457676 -0.25999752 0.04275641 0.11847941 -0.28279588 -0.15755518 0.27863723 -0.34984905 -0.041967407 -0.6535697 0.77257174 -0.3467461 0.51249915 0.30605027 0.1322268 -0.53870314 -0.51140875 -0.3585165 0.2685878 -0.35303265 -0.025389103 0.08959248 0.33383444 -0.16720644 -0.0022884659 -0.3174882 0.17703076 -0.029465616 0.31764874 -0.31700334 0.17171122 0.055670377 -0.13095117 0.020598872 0.4587097 -0.22630146 0.3402202 0.9355588 -0.1197664 0.21760769 0.05928819 0.10088898 0.06675496 0.63556546 -0.31430146 0.7465697 0.04707568 1.04124 0.50108474 -0.0630201 -0.8593062 -0.26548347 0.52768666 -0.7545517 -0.54789513 -0.73722696 -0.15886807
41-3 0.6332548 0.38040933 0.9226694 0.32077435 0.55127543 0.056412235 0.030603617 -0.2730138 -0.39013606 -0.1796494 0.3630339 0.2719804 -0.3070977 -0.46654215 -0.1132776 -0.40207234 -0.16859907 0.014082276 0.46548864 0.1743964 0.5767997 -0.4769441 0.07664647 -0.4396189 -0.20378591 0.1058297 -0.56409836 0.1112012 -0.28547338 0.70286626 -0.059598386 -0.3332866 -0.17784412 -0.016877659 -0.4286393 0.6373139 -0.41460553 -0.2737456 -0.43265837 0.32162037 0.43053612 0.26061046 -0.34896213 0.11758701 0.315064 0.092439234 -0.9299823 -0.61367834 0.39614752 -0.11645889 0.4949144 -0.11460035 -0.7939237 -0.027353033 -0.23274447 0.19917871 0.63669556 -1.0179769 -0.41495037 0.35701618 -0.46684596 0.20364621 0.057553317 -0.60827523
53-16 0.03726779 0.46776474 0.5300258 -0.017393723 0.10710101 -1.0204564 -0.14601842 0.18107347 -0.26125982 0.27007267 0.1290594 -0.41333953 -0.19941597 0.18395604 -0.21899226 -0.03462291 -0.629551 0.91615665 -0.08122201 0.6128063 0.38610467 -0.041569777 -0.3888632 -0.7536734 -0.27751264 0.13340412 -0.4614841 0.002426873 0.014980104 0.22581597 -0.47948134 0.2754974 -0.21965289 0.13906154 0.195306 0.28520438 -0.5725086 0.10346402 0.14358808 -0.021061404 0.18898398 0.32616735 -0.008324054 0.22729775 0.78437966 -0.15049428 0.40838426 -0.10779458 -0.097129956 0.29275694 0.63281316 -0.18192801 0.9354671 0.07932422 0.8363871 0.625621 -0.03990677 -0.83199155 -0.114129335 0.5809456 -0.48760524 -0.4440252 -0.50340617 -0.58218735
57-13 0.6645153 0.24802719 0.63772714 -0.6069166 0.71659076 0.21123645 -0.23922606 -0.5510879 0.22640924 0.19273823 0.2041969 -0.26528567 -0.11205263 -0.07744906 -0.10100472 0.0332001 -1.0072854 0.7773329 0.056625713 0.19132143 0.20776647 0.1626203 -0.60722405 -0.97251433 -0.26036587 0.017467782 -0.7306404 0.15339342 0.07035926 0.35000545 0.10079579 -0.6824204 0.14561394 0.053143967 -0.096807204 -0.18369582 0.11772412 0.13893694 -0.11550811 0.5142639 -0.29084364 0.3875829 -0.10282209 0.04633732 0.19040233 0.059167635 -0.00027695115 0.010434071 0.031058567 0.009158494 0.03536649 0.9969081 0.38749272 -0.6377482 -0.06322839 0.5577838 -0.15424813 -0.20223708 -0.49673578 1.0586573 0.1325018 -0.25328615 -0.2835639 -0.7670463
30-14 0.11070839 0.16079648 0.3633878 0.24168502 0.1944388 -1.0479307 -0.16642225 -0.13110779 -0.5506245 0.4771556 -0.086486116 -0.32838973 0.035052054 0.25369525 -0.31201413 -0.123108275 -0.6659408 0.90823066 -0.2975336 0.49534038 0.52573013 0.057215374 -0.22367826 -0.68634886 -0.34353945 -0.029559439 -0.60448205 0.19901268 0.2302084 0.4345356 -0.4458405 0.021410324 -0.24180567 0.0034075766 -0.13892473 0.24605824 -0.53890246 0.3454215 0.17854917 0.2460127 0.044724178 0.21930921 -0.1219867 0.1979822 0.47576597 0.0425443 0.20964482 -0.092243895 0.34992805 0.09557038 0.6534715 -0.3940196 0.8964925 0.16323096 0.5351702 0.4079405 0.18380627 -1.0016655 -0.09163771 0.54515964 -0.5852171 -0.59386206 -0.76068413 -0.4406817
87-15 0.39893666 0.6190061 0.43864873 -0.35319808 0.18478914 -1.0083673 -0.46045282 -0.018002328 -0.59725165 0.4032113 0.5832628 0.45886573 -0.07501273 -0.07000414 -0.6219702 0.26718554 -0.72082335 0.49206313 -0.012070293 0.71441346 0.65310794 0.45702758 -0.07727552 -0.54561454 -0.09641123 -0.49531326 -0.15844177 -0.24438483 0.26061064 0.16649003 0.5911658 0.3217553 -0.10055166 0.0049056704 -0.50294554 0.16528599 -0.010179545 -0.6024369 -0.2522928 0.7127707 -0.2564432 -0.2430386 -0.4396201 0.30448693 0.39156657 -0.30621096 -0.49876258 0.38203952 0.2905204 -0.13410562 -0.30221337 -0.13589548 0.43686253 0.38060382 0.13354492 -0.043838542 0.43211213 -0.3475931 0.011762255 0.63232744 -0.09703164 0.32307371 0.24549764 0.44476664
7-9 -0.0207304 -0.6948035 0.380481 -0.014168109 0.5707965 -0.41751534 -0.20444316 -0.3805764 -0.51139015 -0.46489006 0.41960138 -0.027496075 -0.58315605 -0.30669308 -0.21843751 -0.12510413 -0.8372307 1.0470747 0.12525795 -0.097966865 0.38649324 0.075603805 0.21123186 -0.5996638 -0.1502821 0.12484752 -1.2244805 0.09068364 0.7629972 -0.07195938 0.66605574 0.6013982 0.4100265 0.23853143 -0.087488174 0.5785342 -0.20414965 0.8096652 -0.44040588 0.65433 0.14650883 0.3098335 -0.21379834 0.011565275 0.48005968 0.17385763 0.08821159 -0.47785145 -0.62145704 -0.47626472 -0.14085823 0.07464047 -0.39193714 -0.3643292 -0.243836 -0.38380924 0.09419163 -0.23718698 -0.07344037 -0.12797788 -0.39719912 0.07481584 -0.18823151 -0.22913039
9-2 0.008734832 -0.13606153 0.33561534 0.26843736 -0.03256779 -0.53198755 -0.1006265 -0.7040378 -0.09007202 -0.22885029 0.02827443 -0.55398375 -0.16606455 -0.57098794 -0.3836711 -0.16379714 -0.41728854 0.99976623 -0.13482298 -0.23325758 0.4077806 -0.30429906 -0.2635161 -0.88988525 -0.60550743 -0.3886279 -0.046394728 -0.18914388 0.08380789 -0.5160029 0.15990314 0.024746172 -0.09845939 0.28868788 -0.5263527 -0.37980413 -0.099586695 -0.04937724 -0.39187717 -0.0035104323 0.1878104 0.10025596 -0.25091717 -0.32913893 0.42583197 0.055116944 -0.009132334 -0.33932763 0.33114856 -0.30256522 -0.3934709 0.06824148 -0.013382989 -0.40509048 0.7525707 -0.8947367 -0.20281 -0.94116193 -0.1490734 0.697702 -0.5422068 0.84172255 0.5372352 -0.16088618
75-4 0.39351708 -0.24498351 0.057525206 0.07945509 0.5695779 -0.2455705 0.31526008 -0.04994213 -0.001504251 -0.14824663 0.3555103 -0.006240264 0.44584385 -0.57716227 -0.139117 0.23917884 -0.8129921 0.3119239 0.033464648 0.6050213 0.3146653 0.6584077 0.23514472 -0.6222517 -0.5547637 -0.2759424 -0.4305086 -0.2077393 0.13171987 0.92148596 0.4039837 -0.013017114 0.35729784 0.22810534 -0.33161196 -0.8229861 -0.25246507 -0.23538722 0.6946729 0.07270266 0.20324442 -0.35986945 -0.48142785 0.27870446 1.218919 0.17508581 0.12368479 0.11164854 0.009896819 0.07937731 -0.56292874 -0.045296155 -0.4618627 0.0016684572 -0.15730946 -0.091636255 0.17316915 -1.0698897 -0.5717314 0.066721365 -0.50063694 0.037860017 0.1927739 0.21075998
51-9 0.061868742 0.010528264 0.61102813 -0.23030326 1.022251 -0.41455373 -0.15804729 -0.30245942 -1.045033 0.0104288785 -0.0017398251 -0.3490141 -0.1599391 -0.21736282 0.3652634 -0.22586614 -0.72094303 -0.3239339 -0.2970082 0.045603383 0.8512864 0.811182 0.45414698 -0.39875433 -0.643654 -0.21308844 -0.76877934 0.27487493 -0.1608171 -0.20326601 0.1756332 0.10351052 0.14513257 -0.71421295 0.19568458 0.020381173 -0.22777 0.0041384846 -0.38432166 -0.044497095 0.12961145 0.07897928 -0.3916073 -0.6232906 0.10559775 0.39000803 -0.15688145 -0.79453945 -0.59179753 0.01382653 0.2956475 -0.48919156 0.0025825829 -0.20662904 0.29656178 -0.22749722 -0.39706218 -0.85298413 0.0936659 0.88502187 -0.20985857 -0.32385543 -0.30918032 -0.23872273
85-8 0.5663227 0.30641758 0.7299698 -0.13469608 0.30767396 0.07980097 -0.09682014 0.25729606 -0.08467009 -0.45540124 0.38320795 -0.28537434 0.5500399 -0.44472966 0.37707445 0.16104187 -0.49599135 0.02386696 -0.31781122 0.47708043 0.28117198 0.49136403 0.09455535 -0.693282 0.07437083 0.2608579 -0.12565798 0.44672737 0.4842508 0.05486983 0.1266582 -0.054392267 1.1202089 -0.08934499 -0.17435949 0.16565938 -0.336104 -0.6776631 -0.1585306 0.18587852 0.8440576 -0.2513467 -0.14012988 -0.15174918 0.4467633 -0.4440958 0.28542802 -0.11061255 -0.013337052 -0.7075336 0.02531948 0.4912334 0.32419658 -0.43075943 -0.29109213 -0.00765875 -0.39684498 -1.0795374 0.12757196 0.21238656 -0.9892115 0.15708333 0.16924953 -0.32711446
3-2 0.45606387 0.51035523 0.53549093 -0.1443309 0.3845909 -0.14493905 0.048433848 0.03709005 -0.28303874 -0.35966164 0.47334477 -0.6201879 0.90529513 -0.3233026 0.20498076 0.056261048 -0.58973926 0.4185537 0.09270281 0.5003662 0.23092103 0.62382853 -0.0036649115 -0.8239924 0.20944999 0.40329215 0.24999641 0.2685368 0.28498998 0.37921157 0.07717283 0.13984138 0.7936662 0.04486318 -0.2914187 -0.010605877 -0.024233893 -0.8466195 -0.105848655 0.09485245 0.9482801 -0.24868675 -0.37175244 0.08284076 0.098127425 -0.56810707 0.21103428 -0.10900706 -0.4093342 -0.8758518 0.04345749 0.5637239 0.16019398 -0.29295284 -0.34155142 -0.14451662 -0.18446004 -0.656816 -0.1058295 0.46678692 -0.79425764 0.2975419 0.12654106 -0.63544893
2-18 0.49604604 0.44471484 0.671265 -0.17928961 0.508649 0.17687444 -0.037490454 0.13304152 -0.32986265 -0.3801551 0.26513496 -0.47733963 0.5376684 -0.3666708 0.41973865 0.27743068 -0.44137785 -0.15601702 -0.2604056 0.39484268 0.29004186 0.23666963 0.116747506 -0.7355422 -0.18066706 0.025591083 -0.05808002 0.40365553 0.38809684 0.44236648 -0.15607183 0.2009981 1.0706818 0.35658714 -0.400272 0.43886775 0.016615259 -0.6661646 -0.108747885 0.31195378 0.8704154 -0.31557143 -0.10946909 0.17505032 0.46929774 -0.52803934 0.0685679 -0.21319912 -0.05711316 -0.7735045 0.38217053 0.48025513 0.086778745 -0.1766368 -0.26060528 0.028555691 -0.17140101 -0.90830714 0.08613542 0.43928885 -0.9828058 0.15798427 0.43078494 -0.42314613
49-4 0.038300205 0.35130608 0.5242494 -0.034371696 0.103283815 -0.41094851 0.50569063 -0.4585178 0.22729456 0.1614255 0.5443953 0.1649991 -0.15439846 0.094985425 -0.14148937 0.32076013 -0.3792648 0.21928535 -0.07033046 0.5931761 0.7167542 -0.251588 0.18962388 -1.1776676 -0.49488536 -0.42781422 -0.4074393 0.8409714 0.19985865 0.38549525 0.54378355 -0.0020662134 -0.054697238 -0.17248853 0.19145082 0.35276064 0.25341934 0.4230117 0.01366657 0.12501301 0.17708495 0.6475802 -0.31146348 0.5859423 0.31540552 -0.43059582 0.21806622 -0.41746223 -0.6609714 -0.72834957 0.16276999 0.07586885 0.14240338 -0.24994433 -0.19331363 -0.5468897 -0.5307185 -0.95446783 -0.36982238 0.27836367 -0.05237638 0.4015689 0.07974751 0.7965599
43-4 0.6897854 -0.02507813 0.05700777 0.21803139 0.40164864 -0.42861778 0.3307768 0.02194449 -0.2157032 -0.23540337 0.5087009 -0.11928433 0.540069 -0.8855669 -0.0191547 0.10676388 -0.81866145 0.16583136 0.44529557 0.57106197 0.25304958 0.56985825 0.15103777 -0.46061268 -0.28032482 -0.2938767 -0.42817387 -0.08966582 0.13319072 0.93756694 0.2865283 0.086546086 0.23793559 0.41628295 -0.3166195 -0.7858793 -0.43341365 0.09466718 0.27610683 0.029857622 -0.118366994 -0.24821435 -0.50085723 0.52371687 1.1684387 0.24960655 0.307337 0.09771259 -0.35742497 -0.016411157 -0.46378374 -0.018003266 -0.22652544 0.048810683 -0.29342514 -0.20635606 0.3128574 -0.84728533 -0.7665283 0.16486314 -0.6252325 -0.2021131 0.19608232 0.24886072
24-4 0.033908557 0.4821046 0.16867682 -0.10840181 0.108426005 -0.73908573 -0.118560225 0.20676224 -0.12670755 0.35073787 0.12848899 -0.24128163 -0.52823913 0.4528995 -0.3329823 0.08697541 -0.5117357 1.0472233 -0.41332048 0.40413782 0.33219185 0.18252794 -0.5313492 -0.7039845 -0.44028282 0.05488182 -0.41414493 0.052524183 0.08550815 0.4439683 -0.30549052 0.094015494 -0.1344711 0.13139892 0.039352413 0.3572441 -0.26071697 0.27926844 0.19230837 -0.052337013 0.15276717 0.32047212 -0.15666232 0.18230234 0.91168827 0.02516253 0.0732568 0.05628155 -0.00027806583 0.0818964 0.4958912 -0.32909584 0.793805 0.006534403 0.89858633 0.56278497 -0.20378742 -1.0014986 -0.21155661 0.59703416 -0.64996713 -0.3540057 -0.8931386 -0.482217
31-17 0.38346618 -0.21905088 0.19080949 -0.08813124 0.16687457 -0.26506022 0.53679764 -0.18010181 -0.13975643 -0.14777242 0.3713546 -0.076798506 0.46309397 -0.56189126 -0.1454678 0.28970993 -0.7418635 0.36216092 0.08250422 0.42970535 0.2347737 0.38284826 0.5260703 -0.6580095 -0.34459558 -0.6231922 -0.69870555 0.07712874 -0.1363171 0.8864218 0.3498515 0.2783951 0.20595689 -0.006545816 -0.35538927 -0.72858554 -0.16793352 -0.09546611 0.27529946 0.036010794 -0.41245115 -0.354128 -0.6163809 0.37457767 1.1548283 0.39806238 -0.06758405 0.08262628 -0.026338477 -0.0070215687 -0.37778524 -0.091473535 -0.3204251 0.33873537 -0.090974785 -0.02168353 0.44384125 -0.892356 -0.25612536 0.61204076 -0.565712 -0.13170382 0.444409 0.21459615
7-2 0.5926764 0.2680799 0.06052536 -0.32728192 0.62006074 -0.0023552564 -0.69866097 -0.40446532 0.12033174 -0.14754358 0.27248615 -0.41471222 0.1715896 -0.2184107 -0.2237136 0.16289236 -0.70230156 1.0195366 0.09144982 0.13347335 0.3249039 0.107978195 -0.9584061 -0.803872 -0.36987138 0.21725057 -0.6062792 0.35585377 0.21212953 0.16673094 0.52388966 -0.8335509 0.31561798 -0.25260073 -0.026997628 -0.11574112 0.02247261 0.14697307 -0.09673645 0.26828247 -0.20061144 0.5462559 -0.5362929 0.09271553 0.25130528 -0.27104518 0.11018956 -0.056409266 0.39078656 -0.047933117 -0.09691257 0.6392222 0.3310529 -0.25827903 -0.7230717 0.3361497 -0.19186173 -0.22605623 -0.6309793 0.95766944 0.340125 0.19544584 -0.042361587 -0.84146374
13-12 0.38924104 0.068729535 0.5220167 -0.06296448 0.16966411 -0.037944637 -0.18383233 -0.50476074 -0.47968546 -0.62040377 0.8967273 -0.5990602 0.03045905 0.22168602 0.16378565 0.4236805 -0.16720581 0.85828304 -0.1689819 1.2420974 0.20360605 0.32702318 -0.24595486 -0.62728906 -0.9401817 -0.15608177 -0.7997444 0.46078 0.25925466 0.23284127 0.32420737 0.16916502 -0.30779624 0.42239663 -0.14699101 -0.048055183 0.07072171 -0.3728361 0.14550853 -0.21718372 0.29082683 0.14719051 -0.06548902 -0.37861377 0.28735235 0.3268583 -0.44862095 0.45902887 -0.83019906 -0.100337364 0.2124472 0.0037270111 0.25629008 0.087129794 -0.045137394 -0.12081653 0.098302394 -0.42458063 -0.6282578 -0.2683636 -0.4034804 -0.09320278 0.5118621 0.107932225
60-15 0.46422815 0.8142291 0.89833134 0.254975 0.67719764 0.11180884 -0.1105691 -0.18752769 -0.2687934 -0.34555513 0.37974244 0.45403168 -0.39998856 -0.81722176 0.22516435 -0.30880395 -0.26485452 0.3344562 0.14369236 0.5341157 -0.024667766 -0.25604874 -0.33288816 -0.47433957 -0.5257192 0.117784165 -0.1426512 -0.12668897 -0.21687962 0.82024413 0.14470956 -0.11321357 -0.23921199 0.22632113 -0.6178617 0.7308146 -0.30581078 -0.31222054 -0.27607894 0.48710266 0.09463121 0.16243954 -0.6115202 0.21398 0.44510356 0.09747947 -0.7786088 -0.6679301 0.057301335 -0.44257388 0.5112262 -0.22475098 -0.5860707 -0.13203324 0.2660817 0.62284714 0.16644743 -0.85037696 -0.19242463 0.012825929 -0.3881151 0.29714 0.18440944 -0.32502463
77-19 0.5659173 0.12702152 -0.069804974 -0.88180196 0.4262619 -1.1125736 -0.40817648 0.22811471 0.24415563 -0.14594729 0.37164715 0.042630136 -0.59605646 -0.1563972 0.011876723 0.40829948 -0.27559614 0.5928083 0.047205687 0.18981466 -0.26340425 0.19341724 -0.18645664 -0.95511967 -0.08039198 -0.20213854 -0.31408048 -0.24394688 -0.7809881 0.27619362 0.025781367 0.3290881 0.16430646 0.07244701 -0.0147450855 0.00888366 -0.22943921 -0.35608754 0.60294235 0.14083773 0.26651627 -0.028468696 0.24874572 0.10070909 0.434214 0.5346272 -0.23466791 -0.44328973 -0.87914395 0.2595229 -0.0012009208 -0.42047262 0.28286245 0.02564766 -0.20808315 -0.19997965 0.073457874 -0.8335879 -0.40153363 0.753358 -0.9803024 0.12176545 0.3950713 0.04082593
10-16 0.4210378 0.20634659 0.11162128 -0.05280071 0.37448058 0.010976696 0.37971815 0.010336385 -0.29401708 -0.16831568 0.24429774 -0.012381777 0.28551975 -0.8403802 -0.13036665 0.13993144 -0.69252723 0.6945649 0.109860376 0.25170514 0.33945915 0.23504157 0.29821074 -0.67108876 -0.7264441 -0.49748847 -0.55608517 -0.29069412 0.12517068 0.85376054 0.08451533 0.23031263 0.13010368 0.24767344 -0.2856257 -0.79856616 -0.35366663 -0.33889914 0.5120398 0.013343977 -0.27377912 -0.22322899 -0.6910652 0.1677165 0.98702216 0.26437536 -0.19096708 -0.027497072 0.051946394 0.059388775 -0.38899115 0.10958748 -0.4654481 0.09928316 -0.178094 -0.130512 0.3613426 -0.9338587 -0.7865817 0.17115803 -0.53568566 0.031631615 0.2614388 0.26697636
72-6 0.26682264 0.09544237 0.3201968 0.031991836 0.62012196 -0.47573695 -0.23971277 0.05958238 -0.52091 -0.073571496 -0.0726753 -0.59091574 0.17455892 -0.88960874 0.07932391 0.15589555 -0.41775006 0.57479805 0.018787637 0.6589201 0.66620564 0.10756632 -0.9622302 -0.3457842 -0.15018402 0.19128735 0.2965267 -0.20233189 -0.6399896 0.5325778 -0.10396337 0.75824785 -0.07148476 0.10524543 -0.4873167 0.21174142 -0.8693536 0.51950604 -0.7621668 0.34892398 -0.17938836 0.33898583 0.411044 0.22074945 0.5459664 0.12898032 -0.12143216 0.06089121 -0.4236006 -0.24378969 -0.1402724 -0.06285093 -0.11469958 -0.33138457 0.19585423 -0.010810809 -0.4327138 -0.66892064 -0.1888977 0.4146905 -0.41206914 0.39002684 0.024652546 0.39134118
89-14 0.41798973 0.19740547 0.19770649 -0.014657487 0.43260312 -0.036040746 0.3434279 -0.11593461 -0.09357941 -0.32078543 0.4239858 -0.40180886 0.43281806 -0.56347185 -0.33942023 0.28807196 -0.60381687 0.5629039 0.66024953 0.5387887 0.6722549 0.517512 0.26716778 -0.8357783 -0.5806236 -0.49157247 -0.7930505 -0.1481625 0.094067454 0.93626684 0.23759946 -0.15659867 0.16005033 0.19831112 0.11644984 -0.596931 -0.24364941 -0.39571875 0.58394307 -0.15418692 -0.30156586 -0.08004102 -0.84307075 0.33616826 0.8969 0.4785133 0.08426408 0.27125657 -0.2619799 0.30090287 -0.6023848 0.20607415 -0.22646755 0.022913322 -0.31857464 -0.034902103 0.14463107 -0.6832754 -0.705713 0.110466115 -0.4405918 -0.103569046 0.14963734 0.233134
26-5 0.35167715 -0.2233334 0.05091654 0.20027949 0.49671164 -0.05783198 0.42148614 -0.061445642 -0.037537955 -0.20870076 0.25444162 -0.26599967 0.045951143 -0.84414124 -0.30971316 0.42220718 -0.77084804 0.7547186 0.089971334 0.29356226 0.23444626 0.66165036 0.21867011 -0.5760342 -0.5211653 -0.6800259 -0.36514074 -0.22408514 0.060165085 0.6774797 0.35025075 0.049032368 0.22346297 0.30823913 -0.17004965 -0.8150548 -0.25637865 -0.32074365 0.2675754 -0.1333803 -0.17781913 -0.20481032 -1.0922335 0.12832409 1.2018992 0.23577829 -0.07418579 -0.15627508 -0.093986504 0.18050595 -0.56175655 -0.16726147 -0.06927594 -0.18432535 0.084614776 -0.2086894 0.24525289 -0.8463097 -0.7775392 0.02362345 -0.43683746 -0.016971769 0.09118204 0.1986175
70-4 0.038421698 -0.01895946 0.22929057 0.045097668 0.39087522 -0.322512 0.5841256 -0.07519126 -0.0029198076 -0.21187033 0.23083678 -0.014852305 0.3124436 -0.65204453 -0.52579564 0.45385277 -0.71928734 0.53316784 0.5812737 0.46432865 0.49643725 0.5474955 0.1474071 -0.9169747 -0.4028867 -0.2911896 -0.29551968 -0.07638547 -0.0039546937 0.93628454 0.4223721 0.008545851 0.36337626 0.36922792 -0.14252387 -0.7816917 -0.21251462 -0.31521505 0.4404768 -0.1500452 -0.20703645 -0.0031086816 -0.76791465 0.4726591 0.8824626 0.53944653 0.1545485 -0.1583998 -0.1751442 0.106245205 -0.5137388 -0.024189243 -0.14477345 0.08686631 -0.5381126 -0.09586618 0.30365732 -0.7165152 -0.7679795 0.48691586 -0.22388557 0.062121324 0.08687183 0.11344765
39-14 0.32848862 0.21742335 0.35364375 0.18005064 0.05912445 -0.11766595 0.58719856 0.21994655 0.07535734 -0.012560489 0.38512558 -0.17366183 -0.045130473 -0.62026817 -0.28726384 0.29090992 -0.93949515 0.57871383 0.07350647 0.45826396 0.17570204 0.674158 0.3205822 -0.54282004 -0.57093185 -0.28179792 -0.44638696 -0.27248242 0.07034075 0.8535444 0.14922531 0.046343066 0.15803316 0.3001865 -0.099519685 -0.5174188 -0.3490434 -0.0739818 0.31559995 -0.22339554 -0.13701284 -0.38273415 -0.9409437 0.061828695 1.4223219 0.40319544 0.001388294 -0.017660204 -0.37374595 0.1509286 -0.5368815 -0.08117433 -0.008389305 0.15744123 0.19885983 0.00579268 0.30215937 -0.84733045 -0.64982164 0.24128284 -0.47982332 -0.43942246 0.091780476 0.13839307
14-10 0.34015894 0.24920392 0.45021296 -0.59634954 -0.33931583 -1.1345053 0.0755916 -0.23384444 -0.5897525 -0.2424532 0.3345448 -0.22377801 0.01918115 -0.14647035 0.040254273 0.10248785 -0.6989692 -0.321383 -0.17996186 0.16625358 0.57175684 -0.19138831 -0.9686846 -0.352231 0.096412875 -0.5117397 -0.29382178 0.10032123 -0.07174203 0.3816695 0.514124 0.5041854 -0.22212207 -0.33591127 -0.037213545 0.60168314 0.098520786 -0.16333866 0.4192868 0.14688839 0.10873576 0.58995134 -0.35061467 -0.06994379 0.8650594 0.4887706 -0.5050821 -0.6404333 -0.1337074 -0.032565393 -0.67510694 0.7151937 0.2771429 -0.5334431 -0.023674725 0.07602211 0.37412497 -0.5882899 0.10104926 0.2602965 -0.26115075 0.14663342 0.56657875 -0.5286612
7-7 0.54965353 0.16901867 0.43701985 -0.20527409 0.37340876 -0.26332834 0.24039736 0.16655505 -0.5440616 -0.32827035 0.31525427 -0.4553855 0.5021156 -0.43589494 0.0005623767 0.28617883 -0.46579427 0.07202828 -0.44241372 0.29395133 0.24709319 0.5037355 -0.046559047 -0.5999496 -0.023444949 0.30169216 0.09006077 0.23683049 0.47355822 0.42871732 0.019787727 0.24268197 0.97513074 -0.070478216 -0.07559276 0.15183692 0.00083117984 -0.8583748 -0.43183786 0.27220723 0.9213213 -0.05929995 -0.11205885 0.17928 0.42018917 -0.3830411 0.16341138 -0.3640783 -0.5547172 -0.55174464 -0.026308816 0.38948745 0.38929135 -0.6840833 -0.35906646 -0.012094868 0.05713542 -0.95541334 0.35819128 0.13799 -0.83133173 -0.051603492 0.2022822 -0.5871839
80-15 0.18938035 0.25736386 0.1146551 -0.1438349 0.19116868 -0.28764185 0.29143977 0.14118384 -0.32901523 -0.20614266 0.22475871 0.026606677 0.13231766 -0.67178184 -0.18340449 0.37246603 -0.804922 0.33448786 0.21027224 0.43400025 0.048446737 0.27304378 0.10064841 -0.82403463 -0.2749992 -0.41974986 -0.5034887 -0.22896856 0.016267614 1.1697458 0.362921 -0.031268883 0.29738617 0.08037872 -0.1676802 -0.47829306 -0.061526556 -0.21396433 0.7187151 -0.18883443 -0.22809751 -0.13310479 -0.49629462 0.051078323 1.4234798 0.5234297 -0.0945998 0.07344544 -0.5756881 0.3535714 -0.6794543 -0.20148307 -0.4302767 0.14248984 -0.22585641 -0.10280913 0.24319808 -0.87812775 -0.4219295 0.26629877 -0.59310246 -0.20527133 0.31706634 0.0010181594
44-4 0.28947288 0.06305287 0.49079084 -0.05866538 0.4227341 -0.5443801 0.22525555 -0.81133753 -0.36142394 -0.3194845 0.90453035 -0.13273072 0.3550046 0.0403559 0.14224103 0.40830272 -0.014332651 0.807261 -0.18412797 1.2112082 0.4838932 0.19379176 -0.22141315 -0.80000794 -0.8983032 -0.17528985 -0.72065985 0.609184 0.19172615 0.169401 0.19222638 -0.06830329 -0.054353945 0.395813 -0.12641479 -0.008760514 -0.01034804 -0.19619986 0.21258362 -0.2752765 0.57460326 0.17156848 -0.07754605 -0.034706727 0.45849714 0.77401835 -0.2833334 0.5181812 -0.6366467 -0.103591725 0.3757724 -0.051039826 0.51623863 -0.17459963 -0.27917865 -0.34986177 0.07215154 -0.24761096 -0.632231 -0.32989657 -0.35034385 0.15898183 0.3378857 0.58964044
69-15 0.5283193 0.14312536 0.53904504 -0.25361824 0.31495845 -0.071722485 0.050148375 0.023913749 -0.5018797 -0.4310042 0.4048143 -0.48532987 0.7831484 -0.36710832 0.55850154 0.15429892 -0.44786766 0.14962563 -0.3745741 0.4095367 0.082356066 0.70566696 0.3658105 -0.95749545 0.1865332 0.014371139 -0.06567386 0.27649435 0.07214131 0.14380793 -0.19010898 -0.026857188 1.0759026 -0.21888152 -0.2829601 0.33885702 -0.1718005 -0.4728249 -0.12029882 0.15700758 0.7033684 -0.3326668 -0.22903804 0.057069555 0.31578493 -0.43262193 0.14503458 -0.16484381 -0.35498488 -0.9431565 -0.04617578 0.6499388 0.3593241 -0.4395926 -0.010130296 -0.2620835 -0.26557136 -0.89972216 0.18463434 0.36880976 -0.8868952 0.10713038 0.12407808 -0.18348935
93-10 0.38710812 -0.6028795 0.9417215 -0.0810546 -0.11109341 -0.043781977 0.47732553 -0.52611536 0.16304722 -0.29576263 0.11464778 -0.013305618 -0.30708203 -0.48677167 0.7639066 -0.06705169 -0.7009554 0.36557484 -0.2061878 0.29571703 0.28113422 0.27775708 -0.299326 -0.24958156 -0.16904604 -0.49654537 -0.78922534 -0.07754959 0.037169084 -0.49522826 0.10436068 0.5164044 0.24966618 0.07432478 -0.33107316 0.34269285 0.24410856 -0.06617863 -0.13901512 0.52117723 -0.62774557 0.34950593 -0.7725196 -0.1015445 0.47535762 -0.24318466 0.09263071 -0.003471718 -0.3820876 0.23223302 0.13641006 0.42019278 -0.17869057 0.20592216 -0.08391141 -0.43470833 -0.5224655 -0.9474593 -0.1923242 0.92053103 -0.7054854 0.49568108 0.29585022 -0.54586494
19-7 0.8392385 0.10982032 -0.41975003 -0.6112061 0.4209379 -1.0078382 -0.52093786 -0.02433383 0.09697891 0.17011687 0.40121236 -0.25466108 -0.2169652 0.025747117 0.27505124 0.2387753 0.070383996 0.7558197 0.031135539 0.59347874 -0.17411786 -0.13828336 -0.18079531 -0.96365654 0.03445311 0.09155101 -0.46628425 -0.06267403 -0.61772 -0.041808777 0.3829786 0.088607535 0.0894445 -0.07098251 0.15710442 0.3465261 -0.23454538 -0.27678764 0.3827586 -0.14177406 0.4303948 0.09535297 0.10596783 -0.024050795 0.3749534 0.34539467 -0.22242884 -0.41495273 -0.95504427 0.45208612 0.054749943 -0.38020158 0.33070016 -0.039864648 -0.039100055 -0.17228998 0.23484655 -0.63198644 -0.13571756 0.90726334 -1.0673279 0.57515264 0.48627037 -0.10553017
73-1 0.75142646 -0.77022517 1.2014917 -0.24562277 -0.09895042 0.123608544 0.31315327 -0.5424233 0.07965016 -0.38932076 0.18846224 0.14803055 -0.33792096 -0.3352952 0.7327506 -0.21134071 -0.43782055 0.24994867 -0.32183912 0.34013185 0.43564525 0.34525365 -0.16524687 -0.12182488 -0.21698806 -0.420278 -0.6142167 0.09191199 -0.4048698 -0.379794 0.048890434 0.29295126 0.29296166 -0.14507124 -0.17617723 0.15592653 -0.0823239 -0.11989444 -0.35452202 0.20637862 -0.27768067 0.56941444 -0.6575505 0.041798808 0.56791615 -0.39825553 0.30315053 0.05331617 0.06719558 0.33184463 0.15711859 0.49510422 0.010797952 0.17271185 0.014530435 -0.1396718 -0.27758345 -0.8930353 -0.43040007 1.0561352 -0.9743436 0.42747763 0.28577942 -0.50877947
16-4 0.5722821 0.20363934 0.22725977 -0.24325652 0.4197265 -0.05577317 0.08556817 0.2530013 -0.35860384 -0.47292686 0.22033222 -0.505944 0.31102598 -0.3876538 0.12461884 0.29687083 -0.5971131 0.2669984 -0.20974769 0.31487706 0.48442024 0.3932291 0.29834563 -0.7493534 -0.2275971 0.24575764 0.13268244 0.3686119 0.47152197 0.4636856 0.416117 0.43516585 1.0622349 0.08237292 -0.270678 0.44891933 -0.101628505 -0.5780452 -0.26070362 0.008501263 0.78570426 -0.13530219 0.052344617 0.20321584 0.18724693 -0.7750566 0.08112129 0.1651764 -0.4563555 -0.9112338 -0.18968429 0.36702707 0.0850828 -0.14793217 -0.17057957 0.14388415 0.034190338 -0.82622594 0.05224153 0.021407442 -1.0386173 0.039488155 -0.10294722 -0.4415511
74-2 0.3157363 0.24730103 0.8903119 -0.33496854 0.08493245 -0.53186697 0.19481221 0.15538147 -0.20180596 -0.41079012 0.68116456 -0.51835966 0.027115762 0.2626916 -0.123612784 -0.6769457 -0.7119019 0.5852318 -0.4358267 0.085888974 0.257583 0.6184511 -0.50071806 -0.9565996 -0.55973387 0.506279 -0.10503456 -0.38341442 -0.3488959 0.34969077 -0.347273 -0.12338766 -0.124130234 -0.16909774 -0.4774965 0.23139304 -0.33367372 0.34756994 -0.011695896 -0.30450618 0.012354067 -0.33028987 -0.6138445 -0.4117754 0.22200851 0.15781918 -0.017941253 -0.2025438 -0.37513986 -0.3283978 0.08543588 0.04211315 0.17348748 -0.44952905 -0.23959227 -0.39591938 -0.011247415 -0.50461835 0.27958414 1.1685735 0.28208607 0.40765578 -0.67226815 0.010710152
74-7 0.72131574 0.37940544 -0.048472542 -1.0979191 0.37453806 -0.7733972 -0.4738639 0.14954416 0.42219123 -0.12818801 0.50134087 0.047303315 -0.3475657 -0.48608053 0.28018674 0.3492476 -0.2882112 0.55104923 -0.10516201 0.043573644 0.04704727 -0.0856388 -0.24860395 -0.65356076 0.30761647 -0.064911366 -0.2140546 0.010165535 -0.5403591 0.1179413 -0.009300591 0.23978262 0.14164871 0.2701119 0.06878432 0.37807837 -0.3182781 -0.25975883 0.20207992 -0.07988055 0.84571546 -0.20755672 0.23317042 -0.101060934 0.42936137 -0.050912414 -0.4597173 -0.73642236 -0.6343695 0.20938613 0.22433886 -0.47531477 0.19378686 -0.083097026 -0.30498555 0.055973183 0.10741636 -0.91540015 -0.17909801 0.75992256 -1.1427536 0.45599014 0.19900517 -0.258719
79-19 0.75646514 0.38751394 -0.07197669 -0.8372679 0.1397637 -1.0997783 -0.5151462 -0.03507334 0.42834046 0.042406388 0.18773815 -0.03521199 -0.56650805 0.05345502 0.20609882 0.3912287 -0.31746888 0.64158654 -0.0686167 0.18605998 0.083586715 0.086533755 -0.36649483 -0.94118434 0.022152925 -0.08706759 -0.39625245 -0.35412577 -0.5595555 0.18543613 -0.088753484 0.13707232 0.036605705 0.089892626 -0.0019361741 0.28912184 -0.14037319 -0.13114105 0.4366744 -0.13268152 0.5190248 -0.15882824 0.16351134 0.10001969 0.41543308 0.22003788 -0.22266263 -0.5372291 -0.82225394 0.25144902 -0.00089860783 -0.54164463 0.2871252 -0.231922 0.07209305 0.058378834 0.00828978 -0.76717293 -0.27916244 0.7173134 -1.189355 0.26614553 0.13474348 -0.34509328
31-0 0.15172607 0.23670469 0.4169429 0.27582815 0.04181005 -0.8028054 -0.3002338 -0.25891116 -0.25458267 0.10687226 0.17486537 -0.4142958 -0.2891607 0.2304027 -0.24157088 -0.1132219 -0.65413773 0.917426 -0.26387626 0.54227036 0.42645144 0.16402045 -0.41163522 -0.6681796 -0.24157333 0.12119511 -0.59916645 -0.047976453 0.28148526 0.34532008 -0.36277598 0.2296121 -0.18860205 0.31521252 0.18856758 0.058721177 -0.39085746 0.014626492 0.07935225 -0.19437756 0.10504605 0.43047085 -0.35130104 0.18995433 0.8013433 -0.20290776 0.2716676 -0.06801987 0.10112391 -0.04688736 0.62356204 -0.22203867 0.7830509 0.025809422 1.0092969 0.4761701 -0.17774437 -0.9645757 -0.17479368 0.42761356 -0.5635571 -0.5839488 -0.96595067 -0.26321536
59-16 0.4385156 0.5858007 0.16718222 0.03184256 0.9388835 -0.019127287 -0.2861271 -0.48601332 -0.11804233 0.07220434 0.21772137 -0.4762658 0.13766421 -0.35432786 -0.06434768 0.15495649 -0.607285 1.1014516 0.2709828 0.21649097 -0.04649778 0.27416074 -0.64674586 -1.1130742 -0.36151132 -0.10777259 -0.63167304 0.12797774 0.029065907 0.3234904 0.8628829 -0.8220852 0.50431937 -0.087354094 -0.3117607 -0.28076276 0.08770278 0.078556344 0.14723745 0.30167443 -0.35059085 0.50013644 -0.34205276 0.22261399 0.11003923 -0.081080444 -0.043710813 -0.09593539 -0.020422613 0.23410894 -0.3233941 0.5828299 0.3664377 -0.38628936 -0.36690062 0.28416315 -0.008661655 -0.18701148 -0.49057177 1.0112903 0.34252754 -0.043725193 0.11684226 -0.7410419
71-11 0.45305458 0.013755488 0.035118997 0.26236027 0.3277302 -0.26518774 0.58318377 -0.17078254 -0.18364851 -0.3184379 0.324078 -0.4060439 0.30082566 -0.7769735 -0.50097305 0.21924415 -0.7748365 0.86157525 0.13741405 0.45706668 0.5187669 0.39418527 0.50297207 -0.5643504 -0.5977884 -0.36243966 -0.75458425 -0.22789545 -0.10933613 0.5599664 0.21383922 0.019779157 -0.067437604 0.37283018 -0.3466649 -0.8231618 -0.34385028 -0.46883023 0.40956873 -0.16595678 -0.29312223 -0.10350948 -0.7162181 0.16940196 0.97909784 0.26687187 0.042604286 0.0021371867 -0.3403631 0.31083342 -0.3411862 -0.03017957 -0.37299427 0.016485207 -0.118018046 -0.37266397 0.33616346 -0.8208701 -0.63166517 0.12822807 -0.33486584 -0.0659491 0.53958005 0.43850753
5-17 0.3871621 0.5691678 0.2940519 -0.44826418 0.9288215 0.1363193 -0.6265372 -0.40286002 -0.11970333 -0.06317569 0.07623846 -0.4311002 0.017819596 -0.11624094 -0.23932679 0.017722618 -0.5190384 0.94126844 0.5141038 0.22819282 0.28757483 -0.08508105 -0.6485663 -0.87983125 -0.49409774 0.034945816 -0.37024269 0.076783374 0.061397456 0.4075989 0.51411766 -0.6768437 0.2134588 0.06865222 -0.11242989 0.0568539 0.32986557 0.0957611 0.0449221 0.2948542 -0.2477271 0.47550142 -0.35711175 0.07980817 0.16875282 -0.33365005 -0.13279128 -0.08817674 0.13078494 0.10628908 -0.10082008 0.78747344 0.111230016 -0.4387802 -0.38377577 0.45744354 -0.09044045 -0.36129355 -0.4175077 1.0450639 0.21193767 0.09026748 -0.05161876 -0.93132967
73-4 0.3910758 0.2348217 0.008626559 0.231416 0.44997323 0.10973989 0.45568386 -0.15579866 -0.13548522 -0.3443375 0.5439989 -0.270508 0.1951276 -0.3617316 -0.3149664 0.2467438 -0.7028735 0.6305372 0.20063661 0.73867184 0.43790248 0.57657063 0.3348594 -0.61702365 -0.66427064 -0.56286126 -0.49641415 -0.3560604 0.17145239 0.752487 0.5658072 0.07979931 0.22268546 0.2718998 -0.15273772 -0.62609804 -0.17534775 -0.318836 0.36073297 -0.17338367 -0.120334804 -0.21799926 -0.9874933 0.2637153 1.1831884 0.36566037 -0.26157862 0.012269287 -0.40714827 0.3601418 -0.6048408 -0.017364828 -0.124722786 0.14122419 -0.08470132 -0.12349507 0.1424146 -0.80925125 -0.47069377 0.027874298 -0.4667587 -0.18477774 0.35279924 0.4698055
63-9 0.114264265 -0.34281188 1.1164901 -0.08259265 0.17885168 0.07942791 0.5192306 -0.4572144 0.12590092 -0.2102184 0.01987863 0.041510627 -0.079366386 -0.64780825 0.6082889 -0.19208801 -0.5214283 0.26930445 -0.2695263 0.13081999 0.16470833 0.5071333 -0.4619759 -0.18346734 -0.17640781 -0.50102615 -0.85097516 0.17303771 -0.42866173 -0.36982727 0.07987066 0.32576814 0.42646584 -0.059291273 -0.43427214 0.030264962 0.088913985 -0.14298305 0.047552392 0.2869691 -0.6168847 0.41434136 -0.5181201 0.09970011 0.8987507 -0.10529925 0.024914969 0.071399614 -0.031732354 0.4351925 0.15301579 0.38036695 0.1737518 0.22069249 -0.065034255 -0.34790552 -0.24861296 -1.1603824 -0.46049234 0.84592503 -0.7359636 0.70253164 0.22787397 -0.020101955
62-10 0.90643597 0.2009444 -0.18603902 -0.73829365 0.012392993 -0.77124655 -0.6736562 0.12556311 -0.08464061 -0.04410438 0.28600985 0.20234917 -0.7564929 -0.07486914 0.14915977 0.33546633 -0.13086791 0.60023874 0.13340811 0.340148 -0.15477815 0.27950048 -0.22067174 -0.7754659 0.05467156 -0.026568804 0.06324296 -0.14020786 -0.77389306 -0.13549826 0.5322305 0.14188008 0.039936364 0.1323625 0.107913926 0.2556672 -0.104089625 0.017027153 0.33227074 -0.20228627 0.51643175 0.08427836 0.1036625 -0.1857832 0.5642186 -0.029369965 -0.25627804 -0.4622839 -0.77042234 0.246919 0.1969461 -0.31534475 0.025321765 -0.050190154 -0.09167532 0.066272415 0.13298894 -0.9011643 -0.43912727 0.85674673 -1.1583099 0.09531448 0.24948159 -0.26555198
63-12 0.8698576 0.31816274 -0.13769512 -0.67039275 0.27826893 -0.6963636 -0.72391903 0.34943643 0.23232388 -0.334553 0.1056518 0.0009578007 -0.8820431 -0.35508657 0.30560175 0.44954276 -0.19677596 0.5193335 -0.017794574 0.51765174 -0.18714869 0.1473291 -0.43428832 -0.9794839 -0.03285413 0.01938138 -0.09254348 -0.3790278 -0.3939952 -0.009186853 0.4533701 0.24894834 -0.09949703 0.08109937 0.25182307 0.15339987 -0.23709007 0.01595428 0.23037083 0.1608342 0.570699 0.004068005 0.10867374 -0.015647423 0.5790444 0.23203649 -0.50184697 -0.32922855 -1.0300614 0.247721 0.028797587 -0.5677024 0.1970469 -0.048555795 0.1518495 -0.14263213 -0.15944767 -0.5708511 -0.032104496 0.9137546 -1.0361112 0.26556903 0.2258189 -0.14177525
42-19 0.3333666 0.28387436 0.45270407 -0.33415592 0.93603635 0.045920517 -0.49026966 -0.38765144 -0.38255596 0.12328149 0.22674327 -0.65316796 -0.15297185 -0.11946089 -0.44596758 0.0130463205 -0.77094346 0.7944758 0.39047724 0.19663486 0.26754966 0.2854821 -0.42919064 -0.8573549 -0.25062844 -0.10913004 -0.67278254 0.036494773 0.08101979 0.3373932 0.35775465 -0.70635086 0.13801841 -0.124013826 -0.25140706 -0.12279653 0.04639402 -0.033553004 -0.01595445 0.44248998 -0.23971629 0.45456806 -0.25644642 0.19381736 0.2768636 0.023661118 -0.021542327 -0.3966846 -0.27874085 0.17683175 0.087949514 0.8301881 0.27243772 -0.64962107 -0.35339552 0.3861084 -0.04631388 0.076935224 -0.44987345 1.1079782 0.08251557 -0.15938126 -0.2691159 -0.87907755
12-3 0.92720795 -0.18975767 0.16076073 0.050679825 0.16940434 0.37261438 -0.26332965 0.09503864 0.0008547483 0.33128852 0.6232077 -0.2876104 -0.48215792 -0.31960446 -0.67230964 0.10252581 -0.7199926 0.8203081 -0.17654677 0.5359425 0.30631417 0.94441426 -0.36600646 -0.3522608 -0.35334736 0.20086406 0.16707881 0.06843343 -0.095745705 0.45767173 0.96157604 -0.030228773 0.118816905 0.009897922 -0.17590898 0.0891152 0.30157667 -0.4181979 0.074372664 0.10100396 0.08696044 0.46490887 -0.75910085 -0.36800805 0.33909667 0.2329015 -0.33893946 -0.32960007 0.19038084 -0.15434748 0.44459495 -0.16592035 0.20155622 0.28443423 0.40722564 -0.45128492 -0.40727404 -1.0845648 -0.033542797 -0.10287358 -0.44829836 -0.45883083 -0.020837223 0.43048468
24-3 0.76161325 0.14593996 0.07661396 -0.74034697 0.19753629 -1.0127801 -0.6552003 -0.2059274 0.36477652 0.08504662 0.19017464 -0.070461646 -0.47747937 0.33278707 0.21106575 0.43576053 -0.2646984 0.533002 -0.0073960517 0.45674664 0.034351762 0.01163148 -0.33877224 -1.0080286 0.07996506 0.064371556 -0.4878114 -0.3855086 -0.5759751 -0.00056468847 0.12085362 0.10332614 -0.08047701 0.080924064 0.1603458 0.26049623 -0.32955232 -0.16614607 0.36806878 -0.27329355 0.48384604 -0.031010823 0.27930284 -0.034508325 0.52981585 0.31862515 -0.19238739 -0.50733465 -0.9507426 0.39884567 0.23909347 -0.24221231 0.4278641 -0.17512722 0.20880564 0.06602652 -0.007838448 -0.52369046 -0.24597584 0.65988934 -1.0645976 0.43715212 0.15878436 0.0400318
88-1 0.33611482 -0.2685669 0.78929377 -0.35333517 0.03993518 -0.58724755 0.06038534 0.16560464 -0.52088004 -0.64783263 0.5572571 -0.30636445 0.050943837 0.02075596 0.19682617 -0.8728308 -0.54795045 0.56709814 -0.61071205 0.26365554 0.36252353 0.38610378 -0.60224867 -1.0183079 -0.46993673 0.58289325 0.24905506 -0.031907123 -0.17892353 0.56309706 0.17291477 -0.23212843 -0.41473258 -0.5158216 -0.5251562 0.23145628 -0.2951455 0.16405636 0.20413795 -0.37217012 0.25357524 -0.014519285 -0.37655562 -0.28955892 0.4880096 0.008519369 -0.07402465 -0.30449083 -0.17457813 -0.18601693 -0.28761837 -0.09204412 -0.29451224 -0.15878505 -0.295171 -0.4775366 -0.09083398 -0.36384115 0.6193257 1.1184857 0.14488816 0.36487883 -0.37822998 -0.007796515
66-2 0.0514338 0.2781563 0.4996793 -0.22582278 0.019056097 -0.8018792 -0.3146832 0.057350468 0.003972883 0.36547336 -0.00609879 -0.1388938 -0.24434882 0.38194698 -0.29801756 -0.10296818 -0.6502434 0.84804267 -0.4115631 0.6608523 0.31403583 -0.060826514 -0.38396615 -0.8462488 -0.54436547 0.39655367 -0.4775481 -0.07515558 0.18440418 0.2567897 -0.17757267 0.094715506 0.024351096 -0.011433568 0.34448418 0.3581731 -0.42996225 -0.054101236 0.6608794 0.03599284 0.2133579 0.33169216 0.011824708 0.15480603 0.80637 0.09772489 0.43530208 -0.1114663 0.23009335 0.16309269 0.5448479 -0.3880576 0.8083508 -0.0023454374 0.61217666 0.681612 -0.03737648 -1.0138139 -0.2909058 0.5608671 -0.7265934 -0.4053648 -0.7537123 -0.32090002
15-17 0.17587931 -0.33308205 0.4531827 -0.4063219 0.48083276 -0.5191632 -0.097293034 -0.33944336 -0.63641 -0.6363875 0.37929955 0.1615427 -0.3161673 -0.09587356 -0.089222476 0.033306114 -0.9977662 0.69338423 -0.2202245 0.028462801 0.45397007 0.07062488 0.21134074 -0.83023 0.1999179 0.22298656 -1.0603657 0.16069266 0.77220374 -0.0040474054 0.558357 0.48729378 0.37498397 0.4283695 0.10091245 0.6922226 0.24019866 0.8549675 -0.18432173 0.548115 0.3232884 0.5780327 -0.1510833 0.007837676 0.37499407 0.24932705 0.048608806 -0.34684324 -0.53157204 -0.41020226 -0.23453389 0.043155853 -0.45543227 -0.20416954 -0.2936991 -0.21768041 0.1759992 -0.36372113 -0.010715068 -0.03259897 -0.22800887 -0.18808483 0.01726458 -0.25920078
44-17 0.17091201 0.41261134 0.6168434 0.23244807 -0.0944459 -0.90085226 -0.23230197 -0.19151624 -0.21832857 0.11584366 0.09110895 -0.23617922 -0.13059607 0.45493087 -0.059689913 -0.2842561 -0.751937 0.7280764 -0.32036155 0.5245607 0.30699545 -0.25106108 -0.54253 -0.7314867 -0.0550448 0.2795092 -0.44823846 0.10580249 0.18149917 0.36580676 -0.36954775 0.004966385 -0.09425766 0.15196203 0.26961955 0.088039264 -0.38794973 0.07790239 0.10495409 -0.14238605 0.14663091 0.6877829 -0.22993186 0.33407295 0.7839988 0.016710592 0.4455681 -0.025583066 0.11734576 0.34203804 0.3521719 -0.3830258 0.7284557 0.19329336 0.70097554 0.39525822 0.14847544 -1.181498 -0.013130005 0.5642166 -0.16608952 -0.60022664 -0.3298176 -0.6471725
91-1 0.3984387 0.17315608 0.5503416 -0.04468502 0.33471063 -0.538592 0.15520711 0.5322226 -0.85418886 -0.42280394 0.7084693 -0.42759776 0.0723658 -0.10243582 0.15986255 -0.6669795 -0.47857368 0.44873697 -0.32832992 0.14808756 0.4405482 0.40785393 -0.52359295 -0.97755 -0.5150966 0.56073576 -0.08401774 0.06259055 -0.18517633 0.18161793 -0.23820029 -0.065085776 0.24607703 -0.3540834 -0.6265094 0.13960743 -0.34017244 0.17032565 0.13339317 -0.1926457 0.11468666 -0.40225253 -0.51609284 -0.6661407 0.13160078 -0.2553204 -0.12859495 -0.43130618 -0.5302758 -0.26294807 0.23772788 0.112674244 -0.1422474 -0.45568374 -0.087215096 -0.56168586 0.16582778 -0.5168634 0.17299502 1.1493391 0.06336452 0.4145257 -0.4388802 0.37689433
51-5 0.5642789 0.3405074 -0.024921237 -1.0435447 0.0570692 -1.1634744 -0.9009921 0.17474723 0.5747442 -0.16167147 0.10515719 -0.18436159 -0.58441544 -0.12604897 -0.054340992 0.34945294 0.0109071005 0.6700487 0.24365471 0.46381387 0.17291495 0.21678138 -0.17657152 -0.8517987 0.2911953 0.0014623364 -0.5329755 -0.10049264 -0.4007057 0.24483407 0.32804734 0.23813774 0.042557333 -0.15772238 -0.11210434 0.17008807 -0.1553946 -0.18626688 0.21551074 0.24455944 0.28597584 -0.13236485 0.11763248 -0.0032678922 0.3459349 0.45843115 -0.4508281 -0.49600464 -0.8645274 0.16004819 -0.05029333 -0.19367544 0.39208597 -0.11599042 -0.4021274 -0.055590376 0.29186937 -0.6214264 -0.29277474 0.90138346 -0.84153444 0.47492012 -0.0124717485 -0.30477732
36-18 0.45789734 -0.06573396 0.15450287 0.17276496 0.3075481 -0.26644796 0.28437904 -0.10646037 -0.3200353 -0.28153145 0.38638464 -0.37600112 0.38629523 -0.60616016 -0.20883669 0.3064694 -0.5891086 0.33053294 0.47058037 0.69741654 0.35567424 0.6242427 0.20350915 -0.68205065 -0.68037844 -0.4193201 -0.5614098 -0.06874972 -0.10575656 0.7816128 0.41274148 0.013893249 0.03519632 0.520083 -0.16928354 -0.63551885 -0.34621963 -0.12501317 0.07692795 0.008688157 -0.44982907 -0.3201802 -0.5990472 0.4572092 1.030384 0.37388974 0.27605978 0.03383278 -0.42764062 0.22908525 -0.49239442 0.008830272 -0.32655448 0.22583574 -0.14511696 -0.05473284 0.28412572 -0.85979176 -0.5569004 0.16244172 -0.2845988 -0.2967013 0.2590012 0.31024477
61-8 0.26781553 0.52550703 0.5681165 0.06993196 0.06413801 -0.9070785 0.16716596 0.071881264 0.040585224 0.35994408 0.21261506 -0.09822494 -0.08240803 0.3216634 -0.36318642 0.11889855 -0.4938183 0.9324598 -0.2631661 0.4479542 0.6550946 -0.223866 -0.2973045 -0.585143 -0.34917107 0.022002567 -0.49005708 0.29797566 0.23323148 0.34906125 -0.3761269 0.06716538 -0.18616545 0.0994552 -0.08435177 0.3174351 -0.38811427 0.15259756 0.14139052 0.06842453 0.17733519 0.4321242 -0.31178156 0.49763808 0.6205652 0.20474495 0.21375893 -0.08167013 0.22195238 -0.088651836 0.6110899 -0.20177211 1.1815621 0.18492427 0.6989195 0.35978943 0.18408643 -0.8411167 -0.09697954 0.58748233 -0.36647648 -0.27774933 -0.92139816 -0.16366495
93-16 0.7736355 0.27333942 0.3973393 -0.28875834 0.4723554 0.0482003 0.32922304 0.115626894 -0.48925894 -0.48415405 0.26990503 -0.36247757 0.5372229 -0.37848654 -0.13639694 0.58627063 -0.49654007 0.09870395 -0.13395543 0.30823013 0.48175636 0.34068412 0.21758145 -0.8851527 0.07444495 -0.04419139 0.05999546 0.5821359 0.29408863 0.35557035 0.11093858 0.30152762 0.99676317 0.16379763 -0.2541436 0.15756477 -0.23569852 -0.73821187 -0.19784993 -0.054783203 1.1107484 0.071668684 -0.29926524 0.3486546 0.1546066 -0.6032674 0.23498884 -0.07576287 -0.3020705 -0.79593915 0.09290836 0.5398712 0.29521677 -0.32946223 -0.23104426 -0.064696044 -0.10491059 -0.7670698 0.014929806 0.252831 -0.78987837 0.32796758 -0.23410963 -0.36383578
98-8 0.60934836 0.5784058 0.11981438 0.20776695 0.57613647 -0.48476648 -0.9013988 -0.3578232 -0.16305217 -0.07918455 0.16516662 -0.530158 0.29731 0.1064135 0.5520196 -0.20483696 -0.5421457 0.49252802 -0.4729772 0.64459926 -0.19763078 0.025078604 -0.14823058 -0.57364005 -0.74235475 0.13998903 -0.55887425 0.33966509 0.22101814 0.025032543 0.08813852 0.33031568 0.2530968 -0.12384873 0.46664524 0.88012177 -0.29179525 -0.01940032 -0.4362609 -0.7945323 0.045258004 0.27951124 -0.5369835 0.018576015 0.058556844 0.2496349 0.15358898 0.0744853 0.0772033 0.27006033 -0.15919654 -0.0057707094 -0.12462715 -0.22891122 0.18360612 -1.0136513 0.3610658 -0.8793134 -0.21190272 0.64989954 0.009672824 0.58542407 0.27154478 -0.37788147
41-15 0.6598677 0.3956321 0.62398404 -0.14932542 0.51071894 -0.24574417 -0.3436875 -0.37191865 0.01945636 -0.114911616 0.18589813 -0.38859427 0.029706324 0.019298919 -0.37879732 0.26519492 -0.7954526 0.68562204 -0.06532131 0.013061737 0.21130483 0.18297017 -0.6248037 -0.8707384 0.05131468 0.0015498745 -0.6698838 0.13885678 0.015737459 0.45062447 0.5957019 -0.7030022 -0.10211624 0.1657758 -0.28269592 -0.2526704 0.099474095 0.00038712498 -0.06876173 0.24589834 -0.07129676 0.5653482 -0.4533588 0.044762123 0.30972776 -0.14375535 -0.09048009 0.13303135 -0.23641072 0.051287126 -0.1575405 0.94481033 0.4705473 -0.7413896 -0.22718649 0.4734654 -0.27145147 -0.17048372 -0.28641227 0.8792983 0.21216673 -0.046367116 -0.4282623 -1.0333021
38-17 0.45412883 0.62952304 0.27471614 -0.16648473 0.2999025 0.2401979 -0.08912414 -0.14022599 -0.44602278 -0.4077928 0.29082742 -0.61905193 0.66088676 -0.27342337 0.14600901 0.28312257 -0.3991323 0.18131 0.08165143 0.659563 0.23239395 0.6099632 -0.075982705 -0.90699625 -0.06500713 0.3113185 -0.18346699 0.5259748 0.5107825 0.29327375 0.14881253 0.15359381 0.8908262 0.33464453 -0.12804344 0.101262435 -0.1361234 -0.95884573 -0.12833057 0.3294432 0.8549081 -0.06619563 -0.17587654 0.3705296 0.07467366 -0.50898385 0.07975292 -0.040810056 -0.4051847 -0.67356 0.07541465 0.6407194 0.3556573 -0.6167903 -0.2896215 -0.09930608 0.023322362 -0.71416163 -0.12244966 0.34612197 -0.8358285 0.2057866 0.0023477548 -0.33899617
41-12 0.40688938 -0.12824847 0.31925845 -0.07460382 -0.27627468 -0.25964758 -0.40754747 -0.82709527 -0.16257796 -0.4696603 -0.03787951 -0.08950469 -0.093828596 -0.6083049 -0.6314232 -0.2290852 -0.17334959 0.80403614 -0.1005145 0.24816044 0.79349536 -0.28173614 -0.44881278 -0.7725884 -0.7126255 -0.4771627 -0.2032058 -0.046164997 0.21023479 -0.7674226 0.118303314 -0.09587085 -0.06233725 0.20578 -0.49715608 -0.45675507 -0.4226467 -0.29633173 -0.08228842 0.33457375 0.17557529 0.2164391 0.05772038 -0.507417 0.49685562 0.19479945 0.32316667 -0.22896793 0.15921944 -0.33435205 -0.19992703 -0.012918473 0.11759952 -0.5946592 0.58367085 -0.6464665 -0.19170238 -0.85289747 -0.37670845 0.21919347 -0.6891269 0.68649286 0.24211332 -0.15483762
71-19 0.10960352 -0.35063782 0.27269295 -0.5079039 0.41946045 -0.34109578 -0.07079079 -0.26706156 -0.3605791 -0.45749664 0.39112625 0.24762087 -0.51142085 -0.068666585 -0.30120578 0.29129547 -1.0777856 1.034171 0.015657172 0.08479389 0.224264 -0.046882343 0.13804287 -0.8121513 -0.078681126 0.18117978 -1.112553 0.037137233 0.46780494 -0.3081427 0.5472392 0.6528822 0.5872388 0.318012 0.18138888 0.94151324 0.11546243 0.7337172 0.21648848 0.5044056 0.12786126 0.39298093 0.025796939 0.010139925 0.54457873 0.15287182 -0.17519291 -0.2520699 -0.6159512 -0.5135751 -0.17540358 -0.12971881 -0.35925668 -0.013349943 -0.35941958 0.012773338 0.14328809 -0.2694394 0.07991536 0.20955218 -0.44551843 0.24120145 -0.05414547 -0.27753824
93-3 0.35581002 0.53112274 0.57220083 0.18308385 -0.0041963104 -0.81266207 -0.14433546 -0.23558334 -0.26494846 0.4796157 0.18307728 -0.37638405 0.079048194 0.40880707 -0.2295502 -0.17327721 -0.67496437 0.88881904 -0.3065355 0.72496367 0.54544026 -0.19911373 -0.28568962 -0.5224974 -0.34805885 -0.079462275 -0.86492795 0.021102933 0.15846053 0.33434382 -0.372241 0.16059957 -0.43332365 0.2001182 -0.19901678 0.2070571 -0.24172491 -0.033509567 0.34315628 -0.14201418 0.055538014 0.38935086 0.155517 0.33205187 0.71146446 0.13159454 0.39592442 0.10962688 0.25740466 0.036435902 0.7073966 -0.3110946 0.7169258 0.16962627 0.633171 0.3964978 0.2094114 -0.6450026 -0.07288849 0.5304423 -0.7018591 -0.2401372 -0.81860423 -0.36160687
98-3 0.6541138 0.18855894 -0.029658927 0.26858884 -0.2239519 0.4167564 -0.6468814 -0.08735736 -0.12391287 0.015673134 0.4056122 -0.3850721 -0.618089 -0.71068877 -0.6480992 -0.0091374125 -0.7006581 0.96516204 0.24062218 0.69587326 0.2862775 0.82821965 -0.38925034 -0.4876873 -0.1321719 -0.116715856 0.15757917 0.22971147 -0.019236345 0.44792345 0.7796084 0.032236096 0.16391018 0.32913768 -0.518494 0.21708064 0.33759895 -0.29635468 -0.30090398 0.14634418 0.093905166 0.51518357 -0.67713016 -0.4900103 0.09175651 0.19249682 -0.51101106 -0.6984015 -0.0066074156 0.03273811 0.3064834 0.05913757 0.5784441 0.18920769 0.4501425 -0.48910478 -0.32652047 -0.72508043 0.019466456 0.22986597 -0.3279737 0.021745594 -0.2222138 0.06416359
98-4 0.4989581 0.34489197 0.39941198 -0.18261383 0.92903835 0.28527433 -0.5896771 -0.3799996 -0.39242986 0.11085018 0.12363 -0.6000597 -0.18267371 0.06658748 -0.58059055 0.03576778 -0.7871864 0.7579218 0.19027796 0.22190973 0.18238874 0.23951422 -0.46987975 -0.9112288 -0.26214856 0.008134227 -0.5273847 0.23510158 0.15193488 0.11833849 0.5160319 -0.47097802 0.029336926 0.026681283 -0.26516452 -0.31556937 0.0496666 -0.28006756 -0.04923883 0.35800216 -0.19484843 0.627011 -0.6371667 0.1296517 0.18507296 0.043954756 -0.27539814 -0.17682783 -0.3220403 0.29346547 -0.029661343 0.71032876 0.41778526 -0.80680025 -0.35827586 0.4520352 -0.31519166 -0.012417933 -0.26229754 1.0218924 0.085937105 -0.1984875 -0.3177877 -0.6977117
70-13 0.55536544 0.39613244 0.72576964 0.24444738 0.51897126 -0.3915906 -0.12267171 0.25015926 -0.42863837 -0.12996069 0.07013913 -0.4642523 0.110518284 -0.58151376 0.042190026 0.4893357 -0.14619325 0.21735652 0.17846723 0.51681846 0.72199583 0.23283333 -0.75821096 -0.35569042 -0.3899398 0.11542267 0.18096204 -0.18629888 -1.1142648 0.6069649 0.042094268 0.88581496 -0.26433232 0.03359671 -0.30313691 0.49427643 -0.801122 0.19966762 -0.78343844 0.59758955 -0.07827036 0.49040225 0.22620872 0.22109628 0.74518615 0.19465114 0.1679062 0.18749118 -0.27209166 -0.40153 0.0625228 -0.25615957 -0.2242762 0.074199915 0.05220214 0.2505355 -0.24221393 -0.6991938 -0.5416629 0.553329 -0.17091626 0.026705028 0.19189543 -0.10491194
41-11 0.39145002 -0.064180546 0.38499564 0.05518745 0.15497123 -0.29494873 -0.22604625 -0.57598466 -0.27728814 -0.61726254 0.6930139 -0.6962676 0.25117832 -0.2948927 0.27434036 0.11982744 -0.20635958 0.940152 -0.16062781 1.1046556 0.34106305 0.10658718 -0.36762193 -0.47680488 -0.9829552 -0.18416488 -0.8850495 0.49483448 -0.009217488 -0.24209051 0.32158038 0.07074335 -0.395191 0.48446262 -0.17919059 0.03336527 -0.13932428 -0.33289763 -0.32073927 -0.16595952 0.6378938 0.2573521 0.31618106 -0.14152335 0.53191096 0.2671021 -0.23070881 0.35121512 -0.7476274 -0.22490364 0.23931809 0.17488341 0.2227939 0.09173125 0.12330854 0.06659811 -0.21478984 -0.015171019 -0.57274926 -0.2555176 -0.4804158 0.42880708 0.31662685 0.3704678
56-6 0.6556752 0.15902705 -0.18195291 -1.048536 0.26311657 -0.742439 -0.68680346 -0.16461389 0.26336628 -0.07029053 0.31059027 -0.12786038 -0.597454 0.068398625 0.15973975 0.20093651 0.051685955 0.46638176 -0.26892817 0.34883198 0.15236963 0.22654684 -0.3474225 -1.0244354 0.16661504 0.11194938 -0.57552344 -0.11866762 -0.6658934 -0.06895504 0.19502549 0.16518693 0.0140259275 -0.027689014 0.15042965 0.21498568 -0.29543462 -0.4421276 0.33604857 -0.104914874 0.49115562 0.033599384 0.3545703 -0.00858242 0.73290277 0.37337458 -0.32884148 -0.43978584 -0.7073923 0.19238485 0.1397448 -0.26921454 0.22099113 -0.07895855 -0.16825484 -0.21259573 0.12225224 -0.58371073 -0.23311979 0.66285497 -1.0292007 0.5623942 0.1926324 0.059068844
5-7 0.5239702 0.1670775 0.24673338 0.09324877 0.057696093 -0.25946006 0.40132648 -0.12781408 -0.055149697 -0.3643615 0.3160312 -0.1534144 0.4685749 -0.75930744 -0.17709905 0.3378962 -0.73360866 0.15877545 0.17734855 0.5367613 0.22509688 0.4648103 0.17501795 -0.6855405 -0.36687237 -0.3427269 -0.60109067 -0.30690113 0.1958747 1.1950363 0.2567893 0.15895753 0.42333308 0.17241947 -0.19026285 -0.7667617 -0.09729802 -0.17522691 0.4087802 -0.031213157 0.050733954 0.0041449047 -0.67467964 0.13830426 1.2372663 0.38841587 -0.09269991 0.152869 -0.26621595 0.03341457 -0.72769403 -0.13235207 -0.19406791 -0.005891537 -0.49857423 -0.11663079 0.30857792 -0.9240884 -0.2904274 0.15279096 -0.5634242 -0.4523453 0.13948342 0.11387183
32-4 -0.06802087 -0.37034932 0.81871104 -0.26668403 0.45994854 -0.39341655 -0.11476721 -0.22379425 -0.07824592 -0.672457 0.23080815 0.14285673 -0.46976444 -0.11652815 -0.24979888 0.16488811 -1.1436032 0.58466935 0.15361376 0.23899204 0.6003326 -0.15143476 0.26993015 -0.91435784 0.027088113 0.12724511 -0.8430773 0.20010658 0.5709496 -0.007946747 0.6867362 0.4308159 0.45323032 0.35391513 -0.08427335 0.9159666 0.1583744 0.79352903 0.031123355 0.41019258 0.29064405 0.70443636 -0.19557232 0.3610924 0.34311965 0.15817225 0.029816383 -0.12298157 -0.5839511 -0.5958355 -0.490446 -0.10171022 -0.3185996 -0.26734638 -0.26561993 -0.24607316 0.1900806 -0.39238805 0.09526522 -0.123675935 -0.17401436 -0.13092722 -0.039823674 -0.19483455
50-16 0.7002482 0.310241 0.019043447 -0.67038846 0.30808708 -1.0649587 -0.5228687 0.13697098 0.21122517 0.16539086 0.5488972 -0.13052201 -0.5216262 -0.29492995 0.2806357 0.15556534 -0.18264201 0.5501756 -0.2831634 0.2774621 0.123919785 0.21302816 -0.14778759 -0.8280458 0.34832123 0.2781403 -0.17848769 0.023877913 -0.5793085 0.10165491 0.16743098 0.27118346 0.08794078 0.30767685 0.04306416 0.22662616 -0.18806913 -0.24381578 0.5662289 -0.061241195 0.6416266 -0.23829189 0.283366 -0.19107266 0.42828852 -0.07638518 -0.41672283 -0.5688544 -0.99810714 0.10897249 -0.0480818 -0.317341 0.257275 -0.13352656 -0.42967904 -0.33647847 -0.07751533 -0.7185675 -0.15467417 0.7046997 -1.1673193 0.518356 0.0077312724 -0.30639473
93-5 0.34414497 0.20119074 0.1022355 -0.102521054 0.52238137 -0.36050573 0.42898646 -0.027594239 -0.29294348 0.01558997 0.19863479 -0.32463962 0.24118131 -0.44910377 -0.27753344 0.34752628 -0.8178521 0.70317304 0.4545602 0.5581404 0.14164886 0.29459563 0.3687988 -0.6084947 -0.45103556 -0.5766073 -0.6779485 0.040466208 -0.12788968 0.8894995 0.36515173 0.0130943265 0.22154601 0.42430767 -0.17781559 -0.5570337 -0.23856345 -0.3017895 0.717146 -0.3659516 -0.38230157 -0.3693035 -0.34790343 -0.060919445 1.1132855 0.48358822 0.16914627 -0.024334893 -0.59553397 0.33697996 -0.28417775 -0.28246754 -0.38124722 0.25497767 -0.3180895 -0.122439556 0.4086589 -0.80004203 -0.40980887 0.28016394 -0.6646937 0.1702215 0.33288065 0.20873193
59-10 0.37251538 -0.121279344 0.39335763 -0.53755736 0.10470075 -0.20611484 -0.10274025 -0.81779957 -0.48205787 -0.66747206 0.7893275 -0.5072622 0.2681733 0.04387321 0.51033777 0.0056838607 -0.22995947 1.0923992 -0.46549413 0.89034593 0.095727354 0.25184086 -0.09716491 -0.74095964 -0.9129623 0.004123551 -0.7669335 0.4307089 0.3271191 0.2427161 0.012799502 0.14678477 -0.32853368 0.29327932 -0.31134716 0.108145855 -0.08230217 -0.29905176 0.14795744 -0.14833608 0.49470964 0.2886249 0.07064778 -0.5226485 0.3335992 0.2994496 -0.61885625 0.4842375 -0.74917537 -0.44817632 0.2443199 -0.010078633 0.11521189 0.24258839 0.07899523 -0.21208344 0.27223393 -0.2943822 -0.5280405 -0.022616161 -0.07612166 0.026879067 0.27382368 0.343189
22-10 0.5036092 0.18173197 0.24095026 -0.6144361 0.28679636 -1.0026772 -0.82115215 -0.3331024 -0.4252937 0.2100374 0.2944589 0.2660162 0.018610008 -0.24961247 -0.40920803 0.22939113 -0.5247733 0.34246314 0.009493552 1.0578846 0.8289162 0.21038659 -0.2713582 -0.27464104 0.0014011344 -0.099809185 -0.2752196 0.039914697 0.071296535 0.062978365 0.35901707 -0.009545064 -0.28938648 -0.4444524 -0.5047691 0.23972139 -0.21488325 -0.39113292 -0.43988472 0.9855172 -0.22521359 -0.30482852 -0.29405972 0.41057217 0.9538471 -0.3114296 -0.24542704 0.21760367 0.5097124 -0.25650966 -0.23273188 -0.26728725 0.33757082 0.5381288 0.17647411 -0.07541647 0.26720557 -0.19275191 -0.14344256 0.7260093 0.14071812 0.39803708 0.22193375 0.11514705
13-8 0.20943776 0.4082117 0.46457186 0.3497403 0.07042081 -0.87259275 -0.24635312 -0.042466275 -0.23326735 0.075949 0.26489764 -0.15148962 -0.044764627 0.2850762 -0.03268466 -0.38668713 -0.8259644 1.1685201 -0.29495126 0.3620365 0.2878083 -0.2284576 -0.53430855 -0.6003387 -0.37130958 0.09421055 -0.6770331 -0.09355634 0.19725822 0.26303577 -0.53417915 0.047639478 -0.17941613 -0.002930791 -0.16007899 -0.0812589 -0.68005514 0.11701896 0.09653662 -0.22126558 0.20508671 0.3354332 -0.02484992 -0.06628314 0.7208973 -0.24238063 0.5316764 -0.24073862 0.079950556 -0.16079088 0.46212563 -0.06421544 0.91549796 -0.025060052 0.77594054 0.29311723 -0.051828746 -0.86312395 0.043841917 0.38404182 -0.48822826 -0.3439126 -0.7030862 -0.3699737
88-5 -0.093659714 0.071907565 0.39724207 -0.06714755 0.42903915 -0.20266451 0.16317281 -0.32668507 0.16063906 0.46450835 0.3081072 -0.15607506 -0.3085552 0.052779894 -0.45274562 0.53449243 -0.4315209 0.24258594 0.030379444 0.96661144 0.26267937 -0.2662997 0.19652371 -0.928876 -0.40899134 -0.37939087 0.16462871 0.38735852 0.17162853 0.35952917 0.5716679 -0.012019996 -0.03670888 -0.25989866 -0.08731626 0.3703001 0.14633986 0.4661677 -0.05857895 -0.20126557 0.53759456 0.8571227 -0.86178774 0.57947624 0.49927637 -0.72469807 0.111371465 -0.6430159 -0.3803967 -0.36866477 0.35445365 -0.23647173 0.18980049 -0.31238672 -0.17320561 -0.6323024 -0.363988 -1.2048131 -0.20053235 0.39649487 0.08754969 0.4883365 0.2365714 0.6296379
8-11 0.31052035 -0.52513945 1.1866394 -0.25352055 0.064851426 -0.03489155 0.64463997 -0.4115496 0.027810907 -0.27214834 0.054303724 -0.036217913 -0.33782625 -0.7509855 0.6541588 -0.35333392 -0.53349537 0.3242035 -0.42863318 0.27284357 0.14747307 0.43473744 -0.4733408 -0.1899838 -0.057202738 -0.7601917 -0.67624205 -0.056508467 -0.16977993 -0.2225851 0.07541496 0.2512218 0.17444292 -0.20436577 -0.22933765 0.29910097 0.40818113 -0.16834494 -0.19377637 0.18611711 -0.38252386 0.5999671 -0.41280657 -0.07023535 0.52628213 -0.19850244 0.0338996 0.20102026 -0.1853307 0.37218153 -0.07831311 0.4527802 0.15936154 0.04162444 -0.17158416 -0.32355967 -0.0843583 -1.1876713 -0.06985636 0.77919585 -0.7928055 0.54365116 0.20278779 -0.31275165
53-6 0.56193393 -0.013670024 0.5705673 -0.26285714 0.26850063 -0.20824564 0.09105103 -0.35710612 -0.45683417 -0.6404984 0.5879207 -0.61934406 0.03262808 0.22055353 0.35014373 0.28766328 -0.16955076 1.2844107 -0.23691738 1.2593393 0.23563437 0.3125059 -0.25796548 -0.614788 -1.0099182 -0.24184643 -0.57065076 0.5191547 0.13012432 0.18213826 0.34883332 0.09809133 -0.22581163 0.25992864 -0.22610655 0.040859137 -0.054618873 -0.30953974 0.1687317 -0.34931242 0.49018988 0.26309094 0.17605089 -0.3840458 0.14672843 0.23572412 -0.6230062 0.4368483 -0.63163406 -0.25160787 0.34402585 0.030053893 0.21883902 -0.041137584 -0.041588556 -0.123429224 0.19668433 -0.23612954 -0.4585204 -0.14980528 -0.06644211 0.10598984 0.2761766 0.43226564
5-9 0.6571619 -0.04706453 0.447554 0.08729465 0.5262543 -0.47393784 -0.36710495 0.21289113 -0.2560537 -0.059512913 0.23930703 -0.67702 0.5205461 -0.78968537 0.15902843 0.48535055 -0.5104707 0.12936345 -0.17272438 1.0898461 0.728127 0.3412083 -0.8163297 -0.2949828 -0.20522733 0.44897446 0.35093567 -0.060185973 -0.5438205 0.4224019 0.11903154 0.6313615 0.06718455 -0.045890078 -0.20427081 0.28548887 -0.7249533 0.23860717 -0.69724786 0.60239536 0.0052288994 0.2140398 0.3777338 0.23831198 0.77602243 0.22537555 0.30678537 0.16782522 -0.3505265 -0.21115795 -0.20170224 -0.41013312 -0.10986925 -0.381773 -0.05243694 0.36263344 -0.6216152 -0.76300585 -0.013427387 0.18591294 -0.5262753 0.24601573 -0.14414108 0.13304381
21-12 0.49818048 -0.46221215 1.1152081 -0.2564483 0.06192465 0.3120489 0.16535492 -0.55373657 -0.033306193 -0.09861001 0.36959082 0.06539894 0.0830919 -0.41139576 0.93655926 -0.052029114 -0.33773124 0.100062884 -0.48088455 0.8310465 0.48241287 0.47074345 -0.3348525 -0.38667107 -0.12256726 -0.33771354 -0.84884477 0.061852355 -0.17869346 -0.4274227 -0.18782611 0.26410976 0.27882233 0.09771181 -0.30483344 0.25752482 0.19543318 -0.15176652 0.116395585 0.21504512 -0.41573 0.6327209 -0.6173705 -0.0609885 0.18974334 -0.2853493 0.047605414 0.12497986 -0.24974342 0.2853992 0.047857754 0.5880408 0.111846484 0.22090352 -0.23652369 -0.22505465 -0.08598735 -0.93015414 -0.3332994 0.70717925 -1.0382482 0.40929586 0.18061598 -0.15449359
29-2 -0.078858145 0.389935 0.1730506 0.16666262 0.023994925 -0.80489963 -0.20704527 -0.19444485 -0.110439025 -0.054103404 0.12910509 -0.5549078 -0.13575682 0.2276183 -0.20367539 -0.2565929 -0.7011139 0.99485403 0.028305015 0.41712928 0.35182223 -0.0127411615 -0.5451397 -0.7264451 -0.41256782 0.22222656 -0.442926 -0.11258792 0.10156797 0.36274374 -0.24596994 0.14115366 -0.28409138 0.03182434 0.017102102 0.32863203 -0.43174323 0.2748802 -0.2162439 0.10464723 0.16223282 0.2621154 -0.2443338 0.5564232 0.67903733 0.037157215 0.35287672 0.02617242 -0.04931784 -0.0074919965 0.6457925 -0.059267003 1.0327942 0.05907496 0.6056808 0.5641751 -0.29699036 -0.96374816 -0.18835147 0.49503654 -0.35394076 -0.6841852 -0.7131389 -0.5130615
67-2 0.6523264 0.0132484855 0.5026977 0.13540933 0.73810565 -0.29908744 -0.018067138 0.088916935 -0.4240182 0.025780898 0.24226093 -0.6100353 0.34669456 -0.4572963 -0.01196986 0.13114744 -0.2862562 0.4542251 0.080831215 0.93540657 0.6068906 0.28593478 -0.8423386 -0.34576464 -0.44214442 0.11717645 0.06834603 -0.21380983 -0.66970897 0.6334792 -0.06913411 0.91773283 -0.28008264 0.3860388 -0.3030424 0.09037618 -0.8465863 0.18138522 -0.6645825 0.18936072 -0.34301254 0.31749496 0.22825693 0.3749745 0.6640164 0.3301916 0.2628569 0.24317119 -0.4562285 -0.2915217 -0.1847836 -0.5033337 0.048028182 -0.24541096 -0.07921773 0.20746602 -0.56093556 -0.6002561 -0.31119084 0.22216873 -0.5052767 -0.1279404 0.39027646 0.16695163
23-14 0.41999125 -0.23694102 0.7490984 -0.06747977 0.12286156 -0.6005646 0.09843264 0.20614456 -0.7058367 -0.5590359 0.5996716 -0.60630006 0.18281692 0.060013663 -0.0023354895 -0.691272 -0.78613853 0.80957866 -0.20646322 -0.1477707 0.06297292 0.26912338 -0.47967756 -0.86547863 -0.5398515 0.22642367 0.018324003 -0.20581363 -0.5026848 0.48454338 -0.024010358 -0.15519561 -0.045844857 -0.358039 -0.6410118 -0.23220028 -0.38826737 0.24733512 0.00692641 -0.2911802 0.075767 -0.46134987 -0.47853976 -0.22406046 0.2774662 -0.038671467 0.07980282 -0.32621768 -0.25749925 0.101653926 -0.3526207 0.027438117 -0.12001307 -0.32921156 -0.2510766 -0.7559283 -0.04017194 -0.8182926 0.10795344 0.7664782 -0.001610326 0.46925294 -0.47284898 0.5417393
95-17 0.69023794 0.100509144 -0.39250317 -0.5516405 0.13541837 -0.8470073 -0.49952126 0.068089776 0.34362438 -0.06389335 0.4208024 -0.08500707 -0.64116234 -0.39835474 0.09286225 0.34870693 -0.2271512 0.5642136 -0.13276792 0.09945013 0.1526991 0.12015461 -0.3725668 -0.83100975 0.21222289 -0.1465676 -0.4682717 -0.13198848 -0.4501544 -0.04625733 0.024451545 0.22003031 0.081047975 0.19793776 -0.06635483 0.17695145 -0.43970826 -0.28236207 0.23282333 0.036720958 0.8014016 -0.2350189 0.3019134 -0.03760024 0.22199586 -0.027054245 -0.18419139 -0.7809946 -0.89397293 0.21681887 -0.059462797 -0.32880735 0.33195227 -0.35252342 -0.32996634 -0.06800921 -0.053359613 -0.8724539 -0.21233936 0.8415292 -1.1433759 0.45774812 0.15834437 -0.13155434
87-9 0.46162227 0.39145207 -0.07074727 -0.09004081 0.60314864 -0.98765165 -0.7548091 -0.30376193 -0.11292273 -0.2778101 0.31195533 -0.26882654 0.09471247 -0.34175998 0.15005873 0.22705412 -0.47309452 0.31456846 -0.6095263 0.70663387 -0.24254835 0.071980685 -0.28841257 -0.45984766 -0.61381674 0.07187389 -0.027232865 0.5143915 0.08436273 0.061056357 -0.062251423 0.41380596 0.40439424 -0.08861404 0.63505906 0.66053003 -0.0265467 0.07814276 -0.246298 -0.45054594 0.04700638 0.4748604 -0.52367043 0.36323923 0.115555756 0.17554063 -0.021493929 -0.30760932 0.041010235 0.49416623 -0.1972991 -0.0944673 -0.05779561 -0.26945788 0.14518695 -0.8256288 0.70810544 -1.051645 0.025436271 0.6076522 0.026757775 0.5596677 0.4363979 -0.7912008
3-11 0.0058460785 0.46531084 0.32903197 0.42681068 0.19211496 -0.77848583 -0.3968602 -0.17376602 -0.04632744 0.018795915 -0.071849525 -0.47334278 0.17585525 0.06535454 -0.07533413 -0.14137723 -0.6789236 0.7307916 -0.29729927 0.55903995 0.43567547 0.04420699 -0.537439 -0.7038134 -0.49431148 0.34599206 -0.6738903 0.14126837 0.0146014085 0.23484306 -0.42856425 0.22754939 -0.2156977 0.22702086 0.083154656 0.4380322 -0.20516047 0.3658995 0.27202007 -0.001751825 0.053438738 0.31307217 -0.26960334 0.38396314 0.67056334 -0.30308694 0.34796104 0.11366452 0.07845207 0.24409103 0.5335538 -0.4422875 0.8969562 0.24439842 0.7212486 0.51566267 -0.0013341219 -0.93543476 -0.07449195 0.63150656 -0.42752996 -0.5022812 -0.5517939 -0.5334718
67-16 0.04618401 0.5664014 0.39927992 0.122137375 0.12575951 -0.81851554 -0.22097622 -0.1938601 -0.047076058 0.18462761 0.051029414 -0.29875785 -0.13735947 0.46920228 -0.29100707 -0.012606014 -0.6351979 0.9589196 -0.23863468 0.44142187 0.15999456 0.009465748 -0.44376296 -0.7372729 -0.28937727 0.24303165 -0.6569465 0.23480839 0.039367653 0.3210362 -0.40949756 0.15491557 -0.028574739 0.07245771 0.63824505 0.34874865 -0.5237141 0.048161466 0.42756993 0.16337852 0.22910741 0.38284546 -0.3799466 0.25281003 0.71255106 -0.113899745 0.2063284 -0.08866372 -0.08498154 0.40638372 0.58131677 -0.50619936 0.7609239 -0.06849035 0.802448 0.30553392 0.05118788 -0.9084618 0.020422362 0.7810344 -0.56243646 -0.45994714 -0.6477734 -0.5901627
95-6 0.5889572 0.45572966 0.512186 -0.33527032 0.69250697 0.08188851 -0.052186776 -0.58215386 0.026676575 -0.10283546 0.3901816 -0.30146047 -0.0026749747 0.059097536 -0.59752667 0.47764918 -0.54670143 0.8761066 0.43839106 0.18529062 0.44539338 0.026374135 -0.5063226 -1.0292147 -0.014758493 -0.1479198 -0.34004772 0.19086596 -0.047032923 0.16140926 0.5442713 -0.49080822 0.14625488 0.022016264 0.050973736 -0.1882216 -0.18855414 0.22140586 -0.18696149 -0.040499005 -0.11186098 0.5776391 -0.38371652 0.08697644 0.08192009 -0.067665264 -0.1727575 -0.16464145 0.104100004 0.05874099 0.06790742 0.8428407 0.48769924 -0.3386145 -0.74983186 0.39095113 -0.14951546 -0.21185982 -0.38327482 0.9871512 0.35328472 -0.007453547 -0.3495029 -0.712727
82-17 0.29041553 -0.16511664 0.4333842 -0.19141431 0.38350004 0.047764752 0.6025612 -0.048996694 -0.07467833 -0.29541168 0.35932305 -0.16301163 0.07674148 -0.66947883 -0.0857206 0.25839323 -0.8296811 0.28751615 0.33238056 0.5062199 0.2939729 0.8792394 0.34244907 -0.82351893 -0.34902877 -0.59701526 -0.7081954 -0.13191289 -0.32221684 0.73119247 0.525127 -0.07516105 0.28328758 -0.0004660365 -0.0035931382 -0.6267372 -0.4958508 0.0067451713 0.16723442 -0.3270246 -0.32537225 -0.11225047 -0.6503403 0.16708511 1.1915275 0.37400222 0.1922068 0.22538114 -0.043361258 0.12675174 -0.3107764 0.08240121 -0.3208266 0.2687865 0.026239816 0.00968093 0.5827013 -0.8384452 -0.638529 0.21962996 -0.4691762 -0.10597336 0.35894266 0.33657
54-12 -0.073122315 0.10625223 0.7109995 0.037991706 0.4026015 -0.36864635 0.39855197 -0.391665 0.39454818 0.17913465 0.4662656 -0.09153426 -0.28994486 -0.07635896 -0.5094686 0.62675107 -0.4122854 0.273384 0.048315678 0.56424505 0.6191702 -0.28680995 0.36874887 -0.9942013 -0.5267055 -0.31304097 -0.0281003 0.67591554 -0.088641755 0.2834288 0.6102339 0.2119501 -0.0352239 -0.5377803 0.3870663 0.27350807 -0.2172083 0.43920413 -0.20488973 -0.4156887 0.6415743 0.6482203 -0.6073644 0.32692608 0.2967278 -0.912157 0.23283714 -0.41421217 -0.3144706 -0.30613682 -0.0054398905 0.057426125 0.21948199 -0.06850846 -0.06172814 -0.4739608 -0.22234374 -0.9713002 -0.30210254 0.4656041 0.13447629 0.4189799 0.2968893 0.57570213
48-16 0.40813115 0.039211966 0.7725229 -0.29498452 -0.0987072 -0.29556042 0.343773 0.31818503 -0.7011458 -0.097869724 0.68701756 -0.4918759 -0.07795287 0.28149077 0.10580069 -0.6391829 -0.72532433 0.6329449 -0.58671033 -0.06882579 0.25165856 0.4820431 -0.40524542 -1.1871063 -0.5133956 0.66146475 -0.039591648 0.0682584 -0.59361106 0.41230074 -0.3166574 -0.16769736 -0.3763537 -0.31640282 -0.3372432 0.19706082 -0.59125197 0.29526997 -0.29009247 -0.4751865 0.13625833 -0.11155094 -0.40075603 -0.37212342 0.33120173 -0.21743777 -0.08486268 -0.20259953 -0.3471604 -0.076463334 -0.06090713 -0.02372346 -0.038380112 -0.11849475 -0.000805365 -0.5211249 0.3163881 -0.49464262 0.06832617 0.98519325 -0.030314676 0.22151357 -0.475654 0.023544103
39-1 0.618633 0.15359016 -0.0960569 -0.70167017 0.1387462 -1.0715834 -0.596088 0.057112176 0.37936103 0.053956512 0.057009302 -0.10247709 -0.72095186 -0.31182656 0.25026962 0.2399082 -0.15359011 0.8534214 -0.14975327 0.39891413 -0.059325583 0.06573049 -0.27648214 -0.97523147 -0.034848705 0.11034467 -0.5557851 -0.21985315 -0.74684995 0.017951606 -0.061995484 0.22565141 -0.12718214 0.06601717 -0.007162453 -0.040885225 -0.2878926 -0.08006703 0.5455642 0.028584491 0.60847205 -0.043540604 0.07959905 -0.24497417 0.33071557 0.20449732 -0.20016962 -0.6574249 -0.572902 -0.013306693 -0.27273747 -0.37192887 0.06573761 -0.4092552 -0.24870116 -0.37204018 0.14403981 -0.5532245 -0.033575095 0.8344286 -1.1079543 0.5442031 0.08232185 -0.030053781
79-1 0.744434 0.5561834 0.79398495 0.12715082 0.585977 0.101202965 0.008520007 -0.105219536 -0.061039373 -0.35151672 0.37259695 0.30952373 -0.6873074 -0.43048006 -0.005523924 -0.4179245 -0.24737908 0.4848914 0.48181948 0.22457305 0.28639176 -0.21762094 -0.34263113 -0.5221785 -0.3099496 0.1603533 -0.08625879 0.12697741 -0.22726686 0.70589113 -0.017057925 -0.12487367 -0.2736857 0.11965529 -0.35708445 0.6760406 -0.09981235 -0.4185227 -0.4020998 0.14389628 0.39674497 0.12971595 -0.5082116 0.037655372 0.5507145 -0.19147979 -0.9173171 -0.21543832 0.31671607 -0.38120288 0.45896164 -0.10810345 -0.79652333 -0.081154436 0.1073245 0.47179675 0.56481653 -1.1961517 -0.16739184 -0.030117836 -0.33288655 0.4673126 0.14337985 -0.44913676
78-14 0.35918418 0.45611015 0.41244838 -0.52537394 0.705303 -0.11420947 -0.38257346 -0.4616106 0.005725611 0.13163488 0.16263263 -0.28698334 0.04886058 -0.14744306 -0.32972726 0.1922901 -0.64169115 1.0667027 0.23342168 0.27636993 0.1913856 0.5168226 -0.5680905 -1.1576821 -0.01890707 0.02447011 -0.50667846 0.31662548 -0.32648903 0.21425784 0.35958686 -0.3788625 0.3039917 -0.04706023 -0.12276638 -0.23853198 0.14161134 -0.15986857 0.30534875 0.2607273 -0.35028252 0.25142524 -0.1544301 -0.23816925 0.26757202 -0.034570403 -0.15218323 -0.27254304 -0.38229853 -0.049835768 -0.17692223 0.6906251 0.28606355 -0.6257968 -0.34266827 0.41298476 -0.0154007515 0.059325308 -0.37609798 1.2505848 0.19725597 0.21493468 -0.5179183 -0.91176784
90-7 -0.13252032 -0.25771973 0.44727054 -0.29373226 0.50328314 0.014644634 -0.08285291 -0.29019207 -0.18602155 -0.49697924 0.41920155 0.17373578 -0.32654846 -0.12571381 -0.42301843 0.02653155 -1.050732 0.92317533 0.31278396 0.09217957 0.45268515 0.083596565 0.017408753 -1.0285549 0.06327998 0.35042378 -0.97179586 0.26364225 0.42433596 -0.081083894 0.7756348 0.3950259 0.53190637 0.34926105 0.01540259 0.7954838 -0.37703052 0.96198934 -0.15151525 0.43574283 0.14048399 0.5112979 -0.31878462 0.007936903 0.51491344 -0.10828114 -0.07694594 0.079486005 -0.1914284 -0.66069466 -0.28622994 -0.1745846 -0.25186136 -0.025346152 -0.2989 -0.15259983 0.28999844 0.024615638 -0.36372262 0.2824321 -0.29068816 -0.06736875 0.039029356 -0.41357625
83-14 0.3924452 -0.04154554 0.7135774 -0.039434448 0.34461716 -0.5925987 -0.12354567 0.4919725 -0.5808964 -0.56425506 0.7293122 -0.7457114 0.40195942 -0.00012126334 0.27016914 -0.6549107 -0.3718444 0.39228666 -0.32605514 0.18866262 0.47410682 0.45291528 -0.57791454 -1.0677732 -0.32662404 0.50108844 0.16081096 -0.041070957 -0.3518495 0.52894735 -0.19574556 -0.06962481 0.016608939 -0.2720655 -0.8071714 0.17188323 -0.07876429 0.4018616 -0.09811172 -0.28911534 0.186285 -0.27317327 -0.52155596 -0.23576021 0.26368505 -0.2535792 0.01928954 -0.18165503 -0.46418852 -0.2401966 0.061659556 0.14684743 -0.13154556 -0.34962496 -0.0760427 -0.41697398 0.11832821 -0.5611768 0.10293144 1.018319 -0.17458566 0.6602567 -0.4708583 0.5554182
36-8 0.4047648 0.34570682 0.44746736 -0.21855776 0.4681217 0.08150864 -0.1592958 0.22710666 -0.15997614 -0.31636253 0.25189352 -0.24850918 0.48589587 -0.52484924 0.31020653 0.24311447 -0.3834963 0.046488017 -0.1280022 0.54228026 0.335648 0.39784813 -0.018206965 -0.7242993 -0.06434833 0.5318259 0.19997132 0.40441507 0.590763 0.5404883 0.12627675 0.24163947 0.9144019 0.09205678 -0.4353612 0.055388708 -0.19859692 -0.81538 -0.18113224 0.3224407 1.1448673 -0.15668134 0.11376777 0.058048047 0.4559802 -0.47516543 0.22950825 -0.17724285 -0.0075448966 -0.6672775 0.09585292 0.5536007 0.12402384 -0.1179335 -0.33199015 0.08105248 0.019282266 -1.1573995 0.020508446 0.32961708 -0.7548007 0.25696182 0.09165909 -0.43411425
22-13 0.5115548 0.11731511 -0.16357662 -0.84814095 0.48274538 -0.86002356 -0.55839366 0.20434843 0.20598596 0.1002423 0.38073447 -0.07743348 -0.50720894 -0.42795202 0.09206567 0.26522684 -0.1376769 0.4510197 -0.28590873 0.04777806 0.16311295 0.19184628 0.01896981 -0.7622124 0.2993013 -0.040211607 -0.25163496 0.045806717 -0.3888066 0.12709363 0.14835253 0.29172185 0.08788077 -0.07509419 -0.06545863 0.23942159 -0.4518003 -0.36541218 0.31771982 0.12376224 0.88623005 -0.022783792 0.33068734 0.025118204 0.23937787 0.25216815 -0.43250412 -0.6786876 -0.8511502 0.38327667 0.029725075 -0.4757394 0.30512407 -0.30320024 -0.32061696 -0.14673974 0.006204386 -0.82871056 -0.24828285 0.9978811 -1.0730722 0.35745364 0.07143836 -0.34478348
88-11 0.49102765 -0.06934652 0.2934822 0.005523036 0.3603055 -0.17730793 0.5365284 -0.2119611 -0.24790412 -0.16827145 0.38333672 -0.046417836 0.12732375 -0.6218207 -0.46533108 0.3858455 -0.60920566 0.44871792 0.42743328 0.4680438 0.3079722 0.4859133 0.6766237 -0.5743184 -0.30701733 -0.41598314 -0.6225024 -0.07220417 -0.04388851 0.8800718 0.58451056 0.2906177 0.08217753 0.17964524 -0.34798196 -0.7376346 -0.5085089 -0.22075987 0.27002072 0.028952539 -0.11909786 -0.18478726 -0.6729803 0.31112346 1.0097008 0.36133528 0.026698193 0.26382095 -0.017131831 0.04296506 -0.4740229 -0.019076588 -0.2581229 0.3307277 -0.13102427 0.034638762 0.67291 -0.7277538 -0.48409596 0.6840422 -0.4793425 0.0053683175 0.32974645 0.24252464
82-8 0.59633553 0.37874904 0.1623941 -0.16448875 0.51274675 -0.086682856 -0.3755246 -0.51532376 0.07371333 -0.10048698 0.26941463 -0.400253 0.08280806 -0.7900166 -0.42355803 0.21067272 -0.73013204 0.7553263 0.17269236 0.3497378 0.22585903 0.16766602 -0.5408315 -0.96399295 -0.031995133 -0.15959434 -0.6173652 0.11974766 0.14942555 0.11027508 0.21691455 -0.69780743 0.30000505 0.1601326 -0.41884336 -0.3521468 0.03593786 0.1062058 0.13783884 0.4080188 -0.069821715 0.41941014 -0.29821098 -0.19654103 0.17265476 -0.5083886 -0.06995042 -0.1633999 -0.26652065 -0.062430184 -0.20588467 0.88514525 0.40449068 -0.7329455 -0.56308585 0.4792051 -0.40113372 -0.19475493 -0.28323197 0.966913 0.11245126 0.14423479 -0.2195601 -1.0168552
14-18 0.19487646 0.2535452 0.42616594 -0.120570146 0.08295005 -0.0319939 -0.11488066 -0.6654124 -0.2993398 -0.54150254 0.818304 -0.593785 0.28944406 0.034064524 0.114807054 0.3156153 -0.25715363 0.86228114 0.012452989 1.3104458 0.34299242 0.27369654 -0.35224834 -0.87229544 -0.9966683 -0.21579823 -0.787328 0.39803332 0.059022427 -0.069670245 0.49600428 -0.12172408 0.01867646 0.44384122 -0.071282715 -0.10175576 -0.20965941 -0.37065715 0.24483873 -0.18760772 0.4723477 0.33859318 -0.0031575 -0.019329276 0.4155986 0.49893883 -0.3269308 0.5354366 -0.60597545 -0.05396877 0.54425097 0.11013652 0.2379889 -0.14077616 -0.30313587 0.064360395 0.18565807 -0.027158614 -0.608302 -0.1339327 -0.2669455 0.062072616 0.31624937 0.1284519
87-12 0.54335034 -0.14997664 0.6615952 -0.21286371 0.335878 -0.5402302 0.17639846 0.33521876 -0.6984307 -0.40377548 0.58226925 -0.790707 0.13777679 -0.103515916 0.41518256 -0.68227345 -0.5611994 0.38222593 -0.34652492 0.24609806 0.26316208 0.47603935 -0.5299616 -0.92443186 -0.47054055 0.4990578 0.2591739 -0.015910149 -0.43741983 0.5824431 -0.10201235 -0.02415402 -0.15503763 0.16753721 -0.7196157 0.24647081 -0.19244397 0.36054695 -0.1165351 -0.24106011 0.32070175 -0.3399185 -0.40747294 -0.32994956 0.22167486 -0.3052312 0.010265464 -0.15922129 -0.38571292 -0.6028511 -0.09157548 0.23989989 -0.099073924 -0.32094735 -0.05163703 -0.27293214 0.15340367 -0.4575264 0.34771696 1.1758455 -0.24248531 0.5761884 -0.5790888 0.40927488
65-4 0.7078568 0.4224938 -0.03815608 -0.8569777 0.36618042 -0.98753554 -0.35731235 0.18310258 0.09384763 -0.12748906 0.15705495 -0.33800662 -0.63412803 0.1126707 0.29573324 0.27799287 0.06231166 0.7643928 -0.16648744 0.45701182 0.09420796 0.04290229 -0.1602362 -1.0579422 0.23960117 0.050600942 -0.5164357 -0.14656414 -0.74773675 0.12950236 0.24327447 0.028536472 -0.1310382 -0.027161496 0.19301054 0.25941435 -0.23610742 0.008804664 0.38596424 -0.23229124 0.33260632 -0.037041653 0.28069252 -0.32634756 0.41794866 0.44773456 -0.32642198 -0.42296022 -0.73295575 0.279247 0.093402326 -0.12475258 0.2748577 -0.2104572 -0.3716557 -0.23832527 0.11286162 -0.6840916 -0.2062266 0.6934029 -1.0336559 0.6498109 0.1981082 0.113196
75-12 0.29111212 -0.24258415 1.3128647 -0.4300589 0.0011312183 0.102009214 0.1881923 -0.38657558 -0.018349588 -0.4439804 -0.012435799 0.0836738 -0.112606086 -0.58844954 0.67661995 0.001389417 -0.5986062 0.24007584 -0.3506844 0.46199948 0.11673283 0.546995 -0.39929342 -0.3937323 -0.035240646 -0.43475452 -0.84667015 -0.14478989 -0.49018914 -0.21859327 -0.023185924 0.17202997 0.16547355 -0.42396706 -0.29062107 0.16783312 0.43816075 -0.065702215 -0.090182334 0.172002 -0.5187836 0.8085997 -0.7170643 0.26333642 0.32654488 -0.015176974 0.09148436 0.08866191 -0.20360142 0.4929471 0.009558572 0.6165753 0.11830246 0.09848194 -0.33024764 0.03699068 -0.28961802 -1.0326012 -0.14900045 0.7842152 -0.6150546 0.33364245 0.26211727 -0.5561344
39-4 0.601677 0.16596653 0.13197544 -0.21271068 0.47860324 -0.08761138 0.29981795 0.12160017 -0.3038198 -0.46595874 0.13827159 -0.6326381 0.2995483 -0.3725482 0.07282001 0.14389955 -0.7100504 0.17039107 -0.18826544 0.44601393 0.45450458 0.2360211 0.18466257 -0.8160964 0.091429435 0.09995243 0.12960172 0.37828657 0.7750315 0.3919345 0.017639454 0.2616224 1.2057657 0.013067475 -0.30196956 0.4315457 0.038803425 -0.42536235 -0.33952215 0.07312738 0.8472934 0.009068527 -0.30444932 0.35242715 0.1615151 -0.45949742 0.2253355 0.14887168 -0.6253889 -1.0666285 0.11053723 0.3048398 0.17260784 -0.25361001 -0.4282405 -0.08296918 -0.3756701 -0.9525409 0.09690763 0.18544601 -0.7914368 0.22637025 0.10462264 -0.27465194
24-11 0.4768631 -0.1898117 0.33427155 0.0534547 0.34856078 0.012086734 0.40653548 0.10117174 0.13602129 -0.2512926 0.4953352 -0.04561435 0.29836938 -0.74103326 -0.09296264 0.22759993 -1.0220982 0.3618994 0.37532315 0.42339793 0.2820892 0.58088803 0.5577438 -0.7675425 -0.36498314 -0.4880863 -0.70354205 -0.030250436 -0.25378722 0.6469267 0.20918074 0.2018694 0.3209994 0.08712742 0.050744507 -0.9599624 -0.36033627 -0.369021 0.15143794 -0.12959597 -0.24075066 0.03792826 -0.62296927 0.1961291 1.1135503 0.32779524 0.16049606 0.119554594 -0.06673894 0.19296657 -0.37161732 0.09640522 -0.34821713 0.1274251 -0.09067278 0.082292005 0.55544597 -0.94579303 -0.43297362 0.3485723 -0.45712534 -0.015789371 0.4103065 0.15514635
42-12 0.5499637 0.5394877 0.35261136 -0.46920356 -0.047210675 -0.9847205 -0.54012954 -0.30240527 -0.5280569 0.24992135 0.29422015 0.07739537 -0.19308369 -0.31973478 -0.7592934 0.2614963 -0.78292805 0.338705 -0.012115081 0.6538591 0.9701014 0.19732296 0.038994648 -0.60037315 -0.23397754 -0.59334695 -0.39234734 -0.14263529 -0.1591819 -0.23412043 0.34615728 0.40106672 -0.26702473 0.052968267 -0.47777408 0.3038173 -0.20555311 -0.28625605 -0.52432245 0.61923 -0.074817196 -0.44522607 -0.3308304 0.1115536 0.4911904 -0.6562204 -0.22313808 0.3341574 0.58170515 -0.062491916 -0.31912294 -0.21251187 0.44611785 0.25100827 -0.37915218 -0.17205702 0.53342247 -0.2463186 -0.22472946 0.58610034 -0.13506334 0.37306347 0.00031416872 0.27476484
31-15 -0.03341802 -0.07301906 0.41028994 -0.09125486 0.53202796 -0.28696865 0.38226548 -0.45833334 0.43052015 0.32276404 0.38104546 0.0051723686 -0.05963058 -0.06425344 -0.14781886 0.24067414 -0.41662183 0.19290115 -0.01966159 0.70969063 0.5307629 -0.2753708 0.41529888 -0.9780412 -0.5439472 -0.48931935 -0.1699925 0.67443305 -0.03615863 0.3440813 0.30862197 -0.06345657 0.105630085 -0.46087337 0.36043248 0.28297767 0.20826592 0.4410318 0.0067637623 0.16756621 0.52095914 0.77143323 -0.8030141 0.42085916 0.33886904 -0.6351207 0.14705221 -0.28089947 -0.26106018 -0.44071877 0.12949441 0.07029778 0.28011405 -0.13202459 -0.015750369 -0.5807297 -0.45725998 -1.0539002 0.069769345 0.63657993 0.042431284 0.6566903 0.34624812 0.6398347
92-12 0.17833377 0.37864646 0.55872136 0.14620599 -0.23520741 -0.9772403 -0.15472005 -0.0083399825 -0.20494138 0.12187884 0.2148443 -0.37940544 -0.24616766 0.39122117 -0.32122836 -0.055937953 -0.46387416 0.8653453 -0.2829344 0.53627336 0.5643209 5.828988e-07 -0.043376584 -0.572857 -0.323881 -0.029121518 -0.522089 0.2652597 0.049808428 0.24882664 0.0027631903 0.25954965 -0.29952505 0.08454048 -0.04102239 0.32787997 -0.73770165 0.070934094 0.015082877 -0.057098802 0.1988028 0.37473667 0.062134176 0.39552763 0.6374917 -0.20015237 0.47900376 -0.08349946 0.36321744 0.09207871 0.40632933 -0.19784379 0.8659564 0.28411764 0.6544669 0.5877444 0.38402736 -0.8900536 -0.23690335 0.52893674 -0.53497773 -0.46194908 -0.9733094 -0.5419624
75-2 0.5344296 -0.030928066 -0.068266824 0.18681784 0.28423956 -0.38799205 0.11442275 -0.53488106 -0.23990366 -0.7002751 0.6107678 -0.055895105 -0.7608581 -0.13552326 -0.112041935 0.334882 -0.86762094 0.20098309 0.38841063 0.04359514 0.5987686 0.59425575 0.24174039 -0.7028501 -0.67378193 0.040944014 -0.11159581 0.17126717 -0.49519765 0.028272824 0.19248262 0.013015305 -0.03826366 -0.36235526 -0.4482917 0.18106444 -1.0025713 -0.3506486 -0.34346652 -0.18171689 0.58472264 0.75480825 -0.039506517 -0.611426 0.66169524 -0.24569473 0.66434056 0.17189652 0.70424056 0.036697567 -0.05884257 0.1677452 -0.091591075 0.10257245 -0.075494334 -0.15360694 -0.027653012 -0.18110885 -0.5660913 0.34705958 -0.63980347 0.25138432 -0.05291955 -0.28778583
12-7 0.7997111 0.2677232 0.42460185 -0.49147043 0.5144153 -0.110486746 -0.37823373 -0.5688174 -0.12091733 -0.02608313 0.12867852 -0.37759984 -0.06487593 -0.2843221 -0.51189345 0.23315805 -0.6430811 0.7203963 0.17937051 -0.0058142953 0.39776012 0.27037644 -0.6769474 -0.88102436 -0.043769483 -0.32523343 -0.6286084 0.11979299 0.10232084 0.27944788 0.45166215 -0.40367606 0.007888871 0.04949194 -0.35489514 -0.01811323 0.18278204 -0.13910957 0.17101032 0.41768083 -0.19015516 0.59370524 -0.35012335 0.10287163 0.2806414 0.041610163 -0.096554406 0.18206364 -0.2802647 -0.028990958 -0.38111737 0.661165 0.55444735 -0.35963562 -0.29705545 0.58713937 0.055880375 -0.107480705 -0.37050852 1.1139978 0.4983555 -0.009085025 -0.25613514 -0.9158161
85-16 -0.25873658 -0.38020346 0.48478195 -0.21589468 0.6768646 -0.13526441 -0.36064547 -0.07514629 -0.2185427 -0.38629198 0.4581078 0.34103358 -0.2783106 -0.17774177 -0.046737976 0.12713303 -0.9485049 0.74957633 -0.02098804 -0.042535774 0.50548047 -0.2546507 0.12012673 -1.0521783 -0.2187441 0.38956174 -1.1736708 -0.035240665 0.46677038 0.22198418 0.63705397 0.6424253 0.5911936 0.48068625 -0.4756553 0.7945385 0.04133321 0.6193637 0.22421256 0.34866324 -0.097914234 0.21192023 -0.30727422 0.348951 0.6623239 0.084262155 -0.27038926 0.0047646146 -0.3815771 -0.71229404 -0.11668452 -0.15518905 -0.41849717 0.10971765 -0.14459348 -0.14259137 0.32572645 -0.43890604 -0.24120028 -0.1389545 -0.20793238 -0.17630063 0.19133613 -0.15430301
83-7 0.46474078 -0.1231408 0.0031426155 -0.14520398 0.3407871 -0.41732073 0.5640672 -0.41158378 -0.42416778 -0.43050525 0.56160045 -0.24001212 -0.58935064 -0.10800047 0.02622916 0.3828647 -0.900562 0.036270555 0.4441796 0.3163834 0.5743933 0.50075036 0.28981832 -0.7093063 -0.59770674 0.3960153 -0.14111653 0.35219112 -0.56128246 0.08056183 0.4477396 -0.106880315 0.12599248 -0.5253512 -0.47720358 0.13659154 -0.6916899 -0.20547579 -0.6994018 -0.34724426 0.52244407 0.86246294 0.0929635 -0.41265303 0.54499424 -0.00079509726 0.33741343 -0.046329796 0.7062076 0.02953351 0.13846113 0.018728403 -0.1163419 0.2545266 -0.22008988 -0.11809912 0.21165535 -0.2637132 -0.41192567 0.4372156 -0.77699375 -0.1503297 -0.06908682 -0.43499544
4-13 0.11838401 0.3109289 0.46266124 0.2815437 -0.09243961 -0.887255 -0.2639422 -0.2716826 -0.11678085 0.11546749 0.31210312 -0.1897387 -0.17321596 0.40850386 0.08593909 -0.1692039 -0.69115716 0.8782131 -0.33960837 0.56047 0.6950815 -0.15845983 -0.31490916 -0.9172455 -0.4280618 0.17280601 -0.9609772 0.060599025 0.38908193 0.35778645 -0.06186761 0.08019539 -0.27296075 0.23249578 0.03378744 0.28713796 -0.39652714 0.17706782 0.32730132 -0.16445203 -0.09378774 0.31611553 -0.19061863 0.27803388 0.5926829 0.08354752 0.42057875 0.29791737 -0.02144349 -0.06026328 0.6610005 -0.3298545 0.60137725 0.0035156629 0.7364116 0.40557748 -0.14662959 -0.7849146 -0.04155537 0.057036657 -0.6899528 -0.46531272 -0.88234067 -0.38591275
79-3 0.47478002 0.038471352 -0.024269477 0.19359745 0.5626959 0.02656422 0.34871015 0.10101343 -0.037769172 -0.110572085 0.41869405 -0.13256839 0.24607794 -0.5702583 -0.061884012 0.21386306 -1.0473903 0.52923757 0.32486618 0.68956757 0.12970732 0.6018998 0.3040177 -0.5606885 -0.53337634 -0.43130982 -0.1745624 -0.08693332 0.13574989 0.93970495 0.28985697 -0.03365762 0.22250675 0.35653618 -0.10698804 -0.8611752 0.035988078 -0.30738613 0.2505147 0.015568709 0.029590169 -0.1380787 -0.956816 0.09698171 1.1700325 0.34731045 0.011014324 -0.11334705 -0.22834119 0.04862601 -0.5695678 -0.11548767 -0.087825194 0.032452613 -0.12914099 0.064074144 0.2824258 -0.9964279 -0.33591834 0.12562731 -0.7202294 -0.29995885 0.20909011 0.27249435
16-11 1.0158956 0.25309694 0.25651407 0.5421357 -0.07508997 0.27025723 -0.5076918 0.033718206 -0.15160625 0.13598754 0.55731237 -0.28011006 -0.7367587 0.13925399 -0.35264996 0.1104375 -0.7123057 0.8616217 -0.043699387 0.78203565 0.4277724 0.9011691 -0.4808619 -0.3958879 -0.534978 0.111261934 0.19298036 0.03895522 -0.088879265 0.4261385 0.62316036 0.06279484 0.3188269 0.36054775 -0.05714254 0.3471913 0.5665293 -0.17601156 0.009635616 0.060081188 0.17064025 0.36392897 -0.841835 0.00024245138 0.27857482 0.034833033 -0.3326249 -0.4422203 0.061938915 0.18196958 0.46261233 -0.1443807 0.40619868 0.4010745 0.74295914 -0.5963889 -0.30779782 -0.929736 0.19910519 0.03134154 -0.30483678 -0.27248114 -0.05207338 -0.20060015
89-9 0.5557087 -0.10662018 -0.1831208 -0.7687953 0.27869278 -0.9865714 -0.4484449 0.16609174 -0.22817662 -0.07108922 0.14727631 0.07314113 -0.96341157 -0.097242765 0.19543697 0.68486214 0.0033485023 0.52241397 -0.057016414 -0.0009192938 0.21038271 0.29486367 0.08648037 -1.0834877 0.04589074 -0.14936224 -0.32187003 -0.14138882 -0.7891249 -0.0014124481 0.14169294 0.2185031 0.07170479 -0.07251969 0.103417255 0.23275763 -0.4145984 -0.13250944 0.2320599 -0.18617691 0.4888765 0.16828758 0.2964029 0.08673184 0.30712906 0.2786587 -0.3610621 -0.68502635 -0.7212927 0.21841967 0.3229244 -0.30548313 0.12505572 0.006508049 -0.10802419 -0.13356657 0.2796559 -0.8000126 -0.566046 0.9375886 -0.9657748 0.12068964 0.30277568 -0.19158623
68-15 0.25850743 -0.25221497 0.28062633 0.17145316 0.57110316 -0.3608614 0.3347907 0.11323876 -0.38677603 -0.26227054 0.10231251 -0.16198458 0.077574745 -0.53541803 -0.31958964 0.14138481 -0.62711746 0.103448205 0.017243821 0.3215884 0.4145329 0.33756456 0.08470503 -0.8072139 -0.55764 -0.77369 -0.762018 -0.016407762 -0.050149 1.1128744 0.23534721 -0.035072617 0.28794518 0.18970196 -0.15816443 -0.8251764 -0.13109747 -0.6054885 0.11484523 0.023806779 -0.25088906 0.07825792 -0.7360639 0.25181115 1.0961096 0.61987054 -0.0072258925 -0.19844723 -0.3782017 0.20921956 -0.6637884 -0.10399907 -0.24278876 0.17849213 -0.21500659 -0.19938603 0.3658584 -0.8032839 -0.43564802 0.28714335 -0.44982204 -0.50371754 0.31379324 0.26253474
40-11 0.7999319 0.3254275 -0.07555385 0.2755436 0.7782245 -0.4881233 -0.79397565 -0.47283655 -0.03375536 0.079578616 0.44078693 -0.4135641 0.508681 -0.07833421 0.23831603 -0.019342441 -0.41945997 0.16890228 -0.3710723 0.70001304 -0.29730543 0.2614248 -0.19298482 -0.6403522 -0.8684968 -0.010658354 -0.22651346 0.44676718 0.45010456 -0.09206784 -0.07438024 0.5412148 0.40170494 0.17051437 0.45099396 0.7064926 -0.19120005 0.0021025818 -0.34252706 -0.54431874 0.22466281 0.33270147 -0.32302254 0.2899782 0.046665575 -0.19924006 -0.1017967 -0.08465599 0.005824676 0.36957282 -0.18786775 0.039780315 0.13850778 -0.28610206 0.27481338 -0.855467 0.42864147 -1.0025151 -0.18326283 0.5387645 -0.15837458 0.5615832 0.44429436 -0.6273491
